<?xml version="1.0"?>
<opencv_storage>
<cascade>
  <stageType>BOOST</stageType>
  <featureType>HAAR</featureType>
  <height>24</height>
  <width>24</width>
  <stageParams>
    <boostType>GAB</boostType>
    <minHitRate>9.9500000476837158e-01</minHitRate>
    <maxFalseAlarm>5.0000000000000000e-01</maxFalseAlarm>
    <weightTrimRate>9.4999998807907104e-01</weightTrimRate>
    <maxDepth>1</maxDepth>
    <maxWeakCount>100</maxWeakCount></stageParams>
  <featureParams>
    <maxCatCount>0</maxCatCount>
    <featSize>1</featSize>
    <mode>BASIC</mode></featureParams>
  <stageNum>20</stageNum>
  <stages>
    <!-- stage 0 -->
    <_>
      <maxWeakCount>20</maxWeakCount>
      <stageThreshold>-1.3811761140823364e+00</stageThreshold>
      <weakClassifiers>
        <_>
          <internalNodes>
            0 -1 17 -7.7774673700332642e-02</internalNodes>
          <leafValues>
            7.3333334922790527e-01 -4.2177361249923706e-01</leafValues></_>
        <_>
          <internalNodes>
            0 -1 213 -6.0598365962505341e-02</internalNodes>
          <leafValues>
            6.1902266740798950e-01 -1.8827621638774872e-01</leafValues></_>
        <_>
          <internalNodes>
            0 -1 568 -3.5960969398729503e-04</internalNodes>
          <leafValues>
            -4.6280929446220398e-01 2.2654634714126587e-01</leafValues></_>
        <_>
          <internalNodes>
            0 -1 283 1.1723228730261326e-02</internalNodes>
          <leafValues>
            2.2195233404636383e-01 -3.8280126452445984e-01</leafValues></_>
        <_>
          <internalNodes>
            0 -1 568 3.0195253202691674e-04</internalNodes>
          <leafValues>
            2.1551989018917084e-01 -3.7859249114990234e-01</leafValues></_>
        <_>
          <internalNodes>
            0 -1 446 3.7020735908299685e-03</internalNodes>
          <leafValues>
            1.3932904601097107e-01 -5.0635147094726563e-01</leafValues></_>
        <_>
          <internalNodes>
            0 -1 408 6.6976994276046753e-03</internalNodes>
          <leafValues>
            -1.7538738250732422e-01 5.1111197471618652e-01</leafValues></_>
        <_>
          <internalNodes>
            0 -1 68 2.6009889552369714e-04</internalNodes>
          <leafValues>
            2.0795473456382751e-01 -3.5742849111557007e-01</leafValues></_>
        <_>
          <internalNodes>
            0 -1 390 1.4440300874412060e-03</internalNodes>
          <leafValues>
            -1.1190774291753769e-01 5.7601100206375122e-01</leafValues></_>
        <_>
          <internalNodes>
            0 -1 424 4.4241006253287196e-04</internalNodes>
          <leafValues>
            1.2389845401048660e-01 -5.5158418416976929e-01</leafValues></_>
        <_>
          <internalNodes>
            0 -1 8 2.9057584470137954e-04</internalNodes>
          <leafValues>
            1.4042444527149200e-01 -4.4596031308174133e-01</leafValues></_>
        <_>
          <internalNodes>
            0 -1 44 -2.3195093672256917e-04</internalNodes>
          <leafValues>
            -3.6071571707725525e-01 1.6275541484355927e-01</leafValues></_>
        <_>
          <internalNodes>
            0 -1 40 2.2127760166767985e-04</internalNodes>
          <leafValues>
            1.9349288940429688e-01 -3.4617736935615540e-01</leafValues></_>
        <_>
          <internalNodes>
            0 -1 203 5.5514061823487282e-03</internalNodes>
          <leafValues>
            -1.5954180061817169e-01 4.0914759039878845e-01</leafValues></_>
        <_>
          <internalNodes>
            0 -1 108 -1.4925654977560043e-04</internalNodes>
          <leafValues>
            -3.0216753482818604e-01 1.8897092342376709e-01</leafValues></_>
        <_>
          <internalNodes>
            0 -1 122 -2.1617878228425980e-02</internalNodes>
          <leafValues>
            4.0732204914093018e-01 -1.4813746511936188e-01</leafValues></_>
        <_>
          <internalNodes>
            0 -1 11 1.6985032707452774e-02</internalNodes>
          <leafValues>
            -2.3144444823265076e-01 3.3497944474220276e-01</leafValues></_>
        <_>
          <internalNodes>
            0 -1 358 1.5533566474914551e-03</internalNodes>
          <leafValues>
            -1.1008208990097046e-01 5.4825121164321899e-01</leafValues></_>
        <_>
          <internalNodes>
            0 -1 330 -2.0506703294813633e-03</internalNodes>
          <leafValues>
            5.0247478485107422e-01 -1.2440170347690582e-01</leafValues></_>
        <_>
          <internalNodes>
            0 -1 8 -2.3962835257407278e-04</internalNodes>
          <leafValues>
            -4.0428286790847778e-01 1.7779220640659332e-01</leafValues></_></weakClassifiers></_>
    <!-- stage 1 -->
    <_>
      <maxWeakCount>20</maxWeakCount>
      <stageThreshold>-1.5442101955413818e+00</stageThreshold>
      <weakClassifiers>
        <_>
          <internalNodes>
            0 -1 417 1.4942928683012724e-03</internalNodes>
          <leafValues>
            -5.0943398475646973e-01 2.6380369067192078e-01</leafValues></_>
        <_>
          <internalNodes>
            0 -1 436 -6.9953016936779022e-03</internalNodes>
          <leafValues>
            4.3979918956756592e-01 -2.5773450732231140e-01</leafValues></_>
        <_>
          <internalNodes>
            0 -1 513 -3.6449360777623951e-05</internalNodes>
          <leafValues>
            2.9848006367683411e-01 -2.5198158621788025e-01</leafValues></_>
        <_>
          <internalNodes>
            0 -1 536 -4.7187517338898033e-05</internalNodes>
          <leafValues>
            2.8101471066474915e-01 -2.6435244083404541e-01</leafValues></_>
        <_>
          <internalNodes>
            0 -1 175 -1.2243492528796196e-03</internalNodes>
          <leafValues>
            3.4656876325607300e-01 -2.0452371239662170e-01</leafValues></_>
        <_>
          <internalNodes>
            0 -1 42 1.3798403961118311e-04</internalNodes>
          <leafValues>
            -2.4868148565292358e-01 2.4309377372264862e-01</leafValues></_>
        <_>
          <internalNodes>
            0 -1 231 1.0989324748516083e-01</internalNodes>
          <leafValues>
            -6.6131547093391418e-02 6.7354613542556763e-01</leafValues></_>
        <_>
          <internalNodes>
            0 -1 78 2.7608387172222137e-03</internalNodes>
          <leafValues>
            1.6361352801322937e-01 -3.6255627870559692e-01</leafValues></_>
        <_>
          <internalNodes>
            0 -1 121 8.7921246886253357e-02</internalNodes>
          <leafValues>
            8.5552655160427094e-02 -6.8730753660202026e-01</leafValues></_>
        <_>
          <internalNodes>
            0 -1 506 -5.6245778978336602e-05</internalNodes>
          <leafValues>
            2.0768770575523376e-01 -2.8451213240623474e-01</leafValues></_>
        <_>
          <internalNodes>
            0 -1 349 -8.1648141145706177e-02</internalNodes>
          <leafValues>
            -6.4880454540252686e-01 1.1548855900764465e-01</leafValues></_>
        <_>
          <internalNodes>
            0 -1 284 -3.1354703009128571e-02</internalNodes>
          <leafValues>
            2.0896734297275543e-01 -3.0084908008575439e-01</leafValues></_>
        <_>
          <internalNodes>
            0 -1 544 -9.7715400625020266e-04</internalNodes>
          <leafValues>
            -5.1991230249404907e-01 1.4218428730964661e-01</leafValues></_>
        <_>
          <internalNodes>
            0 -1 478 4.3004495091736317e-04</internalNodes>
          <leafValues>
            9.3919783830642700e-02 -4.8596295714378357e-01</leafValues></_>
        <_>
          <internalNodes>
            0 -1 311 -1.0390253737568855e-03</internalNodes>
          <leafValues>
            2.4650083482265472e-01 -2.7940848469734192e-01</leafValues></_>
        <_>
          <internalNodes>
            0 -1 483 -3.2760255038738251e-02</internalNodes>
          <leafValues>
            -5.2766239643096924e-01 1.2022639811038971e-01</leafValues></_>
        <_>
          <internalNodes>
            0 -1 224 3.1781066209077835e-02</internalNodes>
          <leafValues>
            1.4888019859790802e-01 -3.7516841292381287e-01</leafValues></_>
        <_>
          <internalNodes>
            0 -1 83 4.5958433474879712e-05</internalNodes>
          <leafValues>
            -2.7345111966133118e-01 2.3717460036277771e-01</leafValues></_>
        <_>
          <internalNodes>
            0 -1 152 -4.5904006808996201e-02</internalNodes>
          <leafValues>
            -4.2555075883865356e-01 1.4736726880073547e-01</leafValues></_>
        <_>
          <internalNodes>
            0 -1 451 1.7167698824778199e-03</internalNodes>
          <leafValues>
            -2.1364948153495789e-01 3.2710891962051392e-01</leafValues></_></weakClassifiers></_>
    <!-- stage 2 -->
    <_>
      <maxWeakCount>13</maxWeakCount>
      <stageThreshold>-1.2824966907501221e+00</stageThreshold>
      <weakClassifiers>
        <_>
          <internalNodes>
            0 -1 324 1.0069287568330765e-01</internalNodes>
          <leafValues>
            -4.9912738800048828e-01 1.8497109413146973e-01</leafValues></_>
        <_>
          <internalNodes>
            0 -1 340 -1.2107340153306723e-03</internalNodes>
          <leafValues>
            3.2766586542129517e-01 -2.5829437375068665e-01</leafValues></_>
        <_>
          <internalNodes>
            0 -1 295 -9.4639661256223917e-04</internalNodes>
          <leafValues>
            4.5560178160667419e-01 -1.6997000575065613e-01</leafValues></_>
        <_>
          <internalNodes>
            0 -1 294 7.4109993875026703e-04</internalNodes>
          <leafValues>
            -1.9325910508632660e-01 4.5163029432296753e-01</leafValues></_>
        <_>
          <internalNodes>
            0 -1 296 -1.9925315864384174e-03</internalNodes>
          <leafValues>
            3.7347650527954102e-01 -1.7410832643508911e-01</leafValues></_>
        <_>
          <internalNodes>
            0 -1 48 -1.9353319657966495e-03</internalNodes>
          <leafValues>
            3.7063258886337280e-01 -1.6511143743991852e-01</leafValues></_>
        <_>
          <internalNodes>
            0 -1 450 -1.3245912268757820e-02</internalNodes>
          <leafValues>
            4.0734723210334778e-01 -1.4725381135940552e-01</leafValues></_>
        <_>
          <internalNodes>
            0 -1 21 1.1591066140681505e-03</internalNodes>
          <leafValues>
            -2.0458257198333740e-01 2.9779416322708130e-01</leafValues></_>
        <_>
          <internalNodes>
            0 -1 549 -1.1275570432189852e-04</internalNodes>
          <leafValues>
            2.8367817401885986e-01 -1.9178268313407898e-01</leafValues></_>
        <_>
          <internalNodes>
            0 -1 4 -3.0045319348573685e-02</internalNodes>
          <leafValues>
            -6.0232174396514893e-01 1.0353079438209534e-01</leafValues></_>
        <_>
          <internalNodes>
            0 -1 272 -9.7820162773132324e-04</internalNodes>
          <leafValues>
            2.3215255141258240e-01 -2.6652631163597107e-01</leafValues></_>
        <_>
          <internalNodes>
            0 -1 412 -1.2478237040340900e-03</internalNodes>
          <leafValues>
            4.4203427433967590e-01 -1.3695563375949860e-01</leafValues></_>
        <_>
          <internalNodes>
            0 -1 37 8.3199419081211090e-02</internalNodes>
          <leafValues>
            -1.4400601387023926e-01 3.8638162612915039e-01</leafValues></_></weakClassifiers></_>
    <!-- stage 3 -->
    <_>
      <maxWeakCount>22</maxWeakCount>
      <stageThreshold>-1.1969169378280640e+00</stageThreshold>
      <weakClassifiers>
        <_>
          <internalNodes>
            0 -1 470 3.9373535662889481e-02</internalNodes>
          <leafValues>
            -4.5553821325302124e-01 3.6190477013587952e-01</leafValues></_>
        <_>
          <internalNodes>
            0 -1 396 2.6832722127437592e-02</internalNodes>
          <leafValues>
            -1.6710454225540161e-01 5.3202164173126221e-01</leafValues></_>
        <_>
          <internalNodes>
            0 -1 422 -2.9069749871268868e-04</internalNodes>
          <leafValues>
            -4.4173985719680786e-01 1.5995801985263824e-01</leafValues></_>
        <_>
          <internalNodes>
            0 -1 24 -1.9527737051248550e-02</internalNodes>
          <leafValues>
            4.3810287117958069e-01 -1.4490383863449097e-01</leafValues></_>
        <_>
          <internalNodes>
            0 -1 25 1.2214709073305130e-01</internalNodes>
          <leafValues>
            -1.5696297585964203e-01 4.4877386093139648e-01</leafValues></_>
        <_>
          <internalNodes>
            0 -1 415 2.5707990862429142e-03</internalNodes>
          <leafValues>
            -1.1284629255533218e-01 4.1639062762260437e-01</leafValues></_>
        <_>
          <internalNodes>
            0 -1 112 5.5479267612099648e-03</internalNodes>
          <leafValues>
            -2.7844583988189697e-01 2.2866916656494141e-01</leafValues></_>
        <_>
          <internalNodes>
            0 -1 563 -3.4678372321650386e-04</internalNodes>
          <leafValues>
            -4.4301053881645203e-01 1.6841335594654083e-01</leafValues></_>
        <_>
          <internalNodes>
            0 -1 564 -3.7476667785085738e-04</internalNodes>
          <leafValues>
            -4.7133162617683411e-01 1.2835620343685150e-01</leafValues></_>
        <_>
          <internalNodes>
            0 -1 72 -9.1851521283388138e-03</internalNodes>
          <leafValues>
            3.7539377808570862e-01 -1.5782283246517181e-01</leafValues></_>
        <_>
          <internalNodes>
            0 -1 253 7.5288233347237110e-03</internalNodes>
          <leafValues>
            -1.3916555047035217e-01 3.8908764719963074e-01</leafValues></_>
        <_>
          <internalNodes>
            0 -1 206 -1.3163056969642639e-01</internalNodes>
          <leafValues>
            5.6222844123840332e-01 -1.0594280064105988e-01</leafValues></_>
        <_>
          <internalNodes>
            0 -1 85 7.9423919320106506e-02</internalNodes>
          <leafValues>
            -7.4849985539913177e-02 6.9103825092315674e-01</leafValues></_>
        <_>
          <internalNodes>
            0 -1 165 -2.9648117721080780e-02</internalNodes>
          <leafValues>
            4.3921360373497009e-01 -1.3448905944824219e-01</leafValues></_>
        <_>
          <internalNodes>
            0 -1 197 1.2705291737802327e-04</internalNodes>
          <leafValues>
            -2.3817928135395050e-01 2.5821697711944580e-01</leafValues></_>
        <_>
          <internalNodes>
            0 -1 423 -5.7211029343307018e-04</internalNodes>
          <leafValues>
            -3.7735354900360107e-01 1.6014593839645386e-01</leafValues></_>
        <_>
          <internalNodes>
            0 -1 193 1.3065554958302528e-04</internalNodes>
          <leafValues>
            -2.4863927066326141e-01 2.2232043743133545e-01</leafValues></_>
        <_>
          <internalNodes>
            0 -1 20 2.4422421120107174e-03</internalNodes>
          <leafValues>
            1.1188326030969620e-01 -5.3609979152679443e-01</leafValues></_>
        <_>
          <internalNodes>
            0 -1 419 -6.0478859813883901e-04</internalNodes>
          <leafValues>
            4.0113788843154907e-01 -1.4930945634841919e-01</leafValues></_>
        <_>
          <internalNodes>
            0 -1 455 1.6015982255339622e-03</internalNodes>
          <leafValues>
            -1.0977765172719955e-01 4.6954494714736938e-01</leafValues></_>
        <_>
          <internalNodes>
            0 -1 519 -9.0967919677495956e-03</internalNodes>
          <leafValues>
            4.1491103172302246e-01 -1.3649706542491913e-01</leafValues></_>
        <_>
          <internalNodes>
            0 -1 430 -1.6950115561485291e-02</internalNodes>
          <leafValues>
            2.8775459527969360e-01 -1.8376469612121582e-01</leafValues></_></weakClassifiers></_>
    <!-- stage 4 -->
    <_>
      <maxWeakCount>20</maxWeakCount>
      <stageThreshold>-1.2717137336730957e+00</stageThreshold>
      <weakClassifiers>
        <_>
          <internalNodes>
            0 -1 241 -5.3494542837142944e-02</internalNodes>
          <leafValues>
            2.9707112908363342e-01 -4.6209096908569336e-01</leafValues></_>
        <_>
          <internalNodes>
            0 -1 182 4.4627934694290161e-03</internalNodes>
          <leafValues>
            -2.2055855393409729e-01 2.9374244809150696e-01</leafValues></_>
        <_>
          <internalNodes>
            0 -1 443 -4.3710588215617463e-05</internalNodes>
          <leafValues>
            2.5558260083198547e-01 -2.5530391931533813e-01</leafValues></_>
        <_>
          <internalNodes>
            0 -1 471 -2.2450424730777740e-03</internalNodes>
          <leafValues>
            2.5344187021255493e-01 -2.4132385849952698e-01</leafValues></_>
        <_>
          <internalNodes>
            0 -1 351 -7.9367135185748339e-04</internalNodes>
          <leafValues>
            2.7348101139068604e-01 -1.8639710545539856e-01</leafValues></_>
        <_>
          <internalNodes>
            0 -1 370 2.5399014702998102e-04</internalNodes>
          <leafValues>
            1.8916934728622437e-01 -3.7860313057899475e-01</leafValues></_>
        <_>
          <internalNodes>
            0 -1 514 -1.7099399119615555e-03</internalNodes>
          <leafValues>
            2.8212240338325500e-01 -2.0674206316471100e-01</leafValues></_>
        <_>
          <internalNodes>
            0 -1 58 -4.1903549572452903e-04</internalNodes>
          <leafValues>
            -4.7249981760978699e-01 1.3262727856636047e-01</leafValues></_>
        <_>
          <internalNodes>
            0 -1 240 -2.7785805985331535e-02</internalNodes>
          <leafValues>
            6.8632543087005615e-01 -9.5572687685489655e-02</leafValues></_>
        <_>
          <internalNodes>
            0 -1 332 -1.2633095681667328e-01</internalNodes>
          <leafValues>
            6.8408459424972534e-01 -7.0078209042549133e-02</leafValues></_>
        <_>
          <internalNodes>
            0 -1 418 6.6848099231719971e-03</internalNodes>
          <leafValues>
            -1.8120753765106201e-01 3.2195430994033813e-01</leafValues></_>
        <_>
          <internalNodes>
            0 -1 373 -1.4281040057539940e-02</internalNodes>
          <leafValues>
            3.4664851427078247e-01 -1.5885634720325470e-01</leafValues></_>
        <_>
          <internalNodes>
            0 -1 371 -5.1624974003061652e-04</internalNodes>
          <leafValues>
            -3.7303364276885986e-01 1.3727270066738129e-01</leafValues></_>
        <_>
          <internalNodes>
            0 -1 354 4.1176872327923775e-03</internalNodes>
          <leafValues>
            -1.5725056827068329e-01 2.9294630885124207e-01</leafValues></_>
        <_>
          <internalNodes>
            0 -1 449 4.8916041851043701e-02</internalNodes>
          <leafValues>
            -1.2562668323516846e-01 4.9608078598976135e-01</leafValues></_>
        <_>
          <internalNodes>
            0 -1 326 -8.0338399857282639e-03</internalNodes>
          <leafValues>
            3.3316975831985474e-01 -1.4721915125846863e-01</leafValues></_>
        <_>
          <internalNodes>
            0 -1 480 -2.4604471400380135e-04</internalNodes>
          <leafValues>
            2.6661583781242371e-01 -1.9592566788196564e-01</leafValues></_>
        <_>
          <internalNodes>
            0 -1 403 -3.4814970567822456e-03</internalNodes>
          <leafValues>
            -6.1448884010314941e-01 7.8890353441238403e-02</leafValues></_>
        <_>
          <internalNodes>
            0 -1 219 7.0040480932220817e-04</internalNodes>
          <leafValues>
            -2.3749835789203644e-01 2.2309646010398865e-01</leafValues></_>
        <_>
          <internalNodes>
            0 -1 316 -1.4396896585822105e-04</internalNodes>
          <leafValues>
            -3.3626160025596619e-01 1.4676442742347717e-01</leafValues></_></weakClassifiers></_>
    <!-- stage 5 -->
    <_>
      <maxWeakCount>30</maxWeakCount>
      <stageThreshold>-1.2947658300399780e+00</stageThreshold>
      <weakClassifiers>
        <_>
          <internalNodes>
            0 -1 529 2.2395968437194824e-02</internalNodes>
          <leafValues>
            -3.9957416057586670e-01 6.6265058517456055e-01</leafValues></_>
        <_>
          <internalNodes>
            0 -1 359 -1.9198522204533219e-04</internalNodes>
          <leafValues>
            2.3552438616752625e-01 -2.3906295001506805e-01</leafValues></_>
        <_>
          <internalNodes>
            0 -1 552 7.2839386120904237e-05</internalNodes>
          <leafValues>
            1.5903633832931519e-01 -3.0425870418548584e-01</leafValues></_>
        <_>
          <internalNodes>
            0 -1 360 -4.6239729272201657e-04</internalNodes>
          <leafValues>
            3.3906149864196777e-01 -1.2902255356311798e-01</leafValues></_>
        <_>
          <internalNodes>
            0 -1 52 4.2361614760011435e-04</internalNodes>
          <leafValues>
            1.1244343221187592e-01 -4.2488789558410645e-01</leafValues></_>
        <_>
          <internalNodes>
            0 -1 89 -2.9690938070416451e-02</internalNodes>
          <leafValues>
            3.2824406027793884e-01 -1.1964836716651917e-01</leafValues></_>
        <_>
          <internalNodes>
            0 -1 179 6.5900245681405067e-04</internalNodes>
          <leafValues>
            -1.6050998866558075e-01 2.9229971766471863e-01</leafValues></_>
        <_>
          <internalNodes>
            0 -1 568 -6.9792376598343253e-04</internalNodes>
          <leafValues>
            -5.1052451133728027e-01 8.7443731725215912e-02</leafValues></_>
        <_>
          <internalNodes>
            0 -1 41 8.6957319581415504e-05</internalNodes>
          <leafValues>
            -2.5207865238189697e-01 1.8414326012134552e-01</leafValues></_>
        <_>
          <internalNodes>
            0 -1 323 -1.0261123627424240e-01</internalNodes>
          <leafValues>
            -6.0010361671447754e-01 9.0084195137023926e-02</leafValues></_>
        <_>
          <internalNodes>
            0 -1 161 -1.4239451847970486e-02</internalNodes>
          <leafValues>
            -5.9762376546859741e-01 5.3741160780191422e-02</leafValues></_>
        <_>
          <internalNodes>
            0 -1 399 3.3027599565684795e-03</internalNodes>
          <leafValues>
            -1.2714944779872894e-01 3.2993999123573303e-01</leafValues></_>
        <_>
          <internalNodes>
            0 -1 12 -7.9566170461475849e-04</internalNodes>
          <leafValues>
            -5.1504313945770264e-01 7.8806281089782715e-02</leafValues></_>
        <_>
          <internalNodes>
            0 -1 533 -3.3430266194045544e-04</internalNodes>
          <leafValues>
            2.2443684935569763e-01 -2.0247799158096313e-01</leafValues></_>
        <_>
          <internalNodes>
            0 -1 392 -8.2260271301493049e-04</internalNodes>
          <leafValues>
            2.9732152819633484e-01 -1.4006114006042480e-01</leafValues></_>
        <_>
          <internalNodes>
            0 -1 516 -1.9296584650874138e-04</internalNodes>
          <leafValues>
            -3.0830863118171692e-01 1.3670212030410767e-01</leafValues></_>
        <_>
          <internalNodes>
            0 -1 49 8.5805252194404602e-02</internalNodes>
          <leafValues>
            -7.6492197811603546e-02 5.5559742450714111e-01</leafValues></_>
        <_>
          <internalNodes>
            0 -1 217 -8.4560364484786987e-04</internalNodes>
          <leafValues>
            -3.3065184950828552e-01 1.2759235501289368e-01</leafValues></_>
        <_>
          <internalNodes>
            0 -1 301 -1.7701083561405540e-03</internalNodes>
          <leafValues>
            3.2719448208808899e-01 -1.1422021687030792e-01</leafValues></_>
        <_>
          <internalNodes>
            0 -1 29 -5.9863820672035217e-02</internalNodes>
          <leafValues>
            -8.2615268230438232e-01 5.0456054508686066e-02</leafValues></_>
        <_>
          <internalNodes>
            0 -1 447 -8.8676507584750652e-04</internalNodes>
          <leafValues>
            -5.3920930624008179e-01 6.7484512925148010e-02</leafValues></_>
        <_>
          <internalNodes>
            0 -1 420 5.6281895376741886e-04</internalNodes>
          <leafValues>
            -1.8191592395305634e-01 2.1911728382110596e-01</leafValues></_>
        <_>
          <internalNodes>
            0 -1 31 -3.0712420120835304e-02</internalNodes>
          <leafValues>
            2.9101136326789856e-01 -1.3119104504585266e-01</leafValues></_>
        <_>
          <internalNodes>
            0 -1 82 7.0975554990582168e-05</internalNodes>
          <leafValues>
            -2.1259294450283051e-01 1.9740627706050873e-01</leafValues></_>
        <_>
          <internalNodes>
            0 -1 84 1.6710544005036354e-02</internalNodes>
          <leafValues>
            -1.1859457194805145e-01 4.0407836437225342e-01</leafValues></_>
        <_>
          <internalNodes>
            0 -1 290 4.5446161180734634e-02</internalNodes>
          <leafValues>
            6.7180268466472626e-02 -7.9775863885879517e-01</leafValues></_>
        <_>
          <internalNodes>
            0 -1 115 2.8389617800712585e-02</internalNodes>
          <leafValues>
            -1.3971152901649475e-01 3.3500057458877563e-01</leafValues></_>
        <_>
          <internalNodes>
            0 -1 557 5.2517582662403584e-04</internalNodes>
          <leafValues>
            9.4123177230358124e-02 -4.0267366170883179e-01</leafValues></_>
        <_>
          <internalNodes>
            0 -1 80 2.4439846165478230e-03</internalNodes>
          <leafValues>
            6.4656905829906464e-02 -5.8450466394424438e-01</leafValues></_>
        <_>
          <internalNodes>
            0 -1 366 -1.0740993311628699e-03</internalNodes>
          <leafValues>
            3.6649659276008606e-01 -1.1200090497732162e-01</leafValues></_></weakClassifiers></_>
    <!-- stage 6 -->
    <_>
      <maxWeakCount>30</maxWeakCount>
      <stageThreshold>-1.1323733329772949e+00</stageThreshold>
      <weakClassifiers>
        <_>
          <internalNodes>
            0 -1 419 1.1354757007211447e-03</internalNodes>
          <leafValues>
            -4.3565890192985535e-01 2.6732674241065979e-01</leafValues></_>
        <_>
          <internalNodes>
            0 -1 55 -2.0177476108074188e-02</internalNodes>
          <leafValues>
            4.9020946025848389e-01 -1.2480702996253967e-01</leafValues></_>
        <_>
          <internalNodes>
            0 -1 398 5.8572174748405814e-04</internalNodes>
          <leafValues>
            -1.5117664635181427e-01 2.9758155345916748e-01</leafValues></_>
        <_>
          <internalNodes>
            0 -1 102 5.0886868848465383e-05</internalNodes>
          <leafValues>
            -1.8519441783428192e-01 1.9499653577804565e-01</leafValues></_>
        <_>
          <internalNodes>
            0 -1 314 1.1263880878686905e-03</internalNodes>
          <leafValues>
            -9.0841770172119141e-02 3.8054862618446350e-01</leafValues></_>
        <_>
          <internalNodes>
            0 -1 497 1.4466117136180401e-03</internalNodes>
          <leafValues>
            8.6656406521797180e-02 -3.7078386545181274e-01</leafValues></_>
        <_>
          <internalNodes>
            0 -1 315 -2.2523957304656506e-03</internalNodes>
          <leafValues>
            4.1871136426925659e-01 -6.1200380325317383e-02</leafValues></_>
        <_>
          <internalNodes>
            0 -1 442 -1.0967357229674235e-04</internalNodes>
          <leafValues>
            -3.2610189914703369e-01 1.0925723612308502e-01</leafValues></_>
        <_>
          <internalNodes>
            0 -1 77 3.8937090430408716e-03</internalNodes>
          <leafValues>
            5.7752463966608047e-02 -5.9890776872634888e-01</leafValues></_>
        <_>
          <internalNodes>
            0 -1 81 -1.6528673586435616e-04</internalNodes>
          <leafValues>
            -2.7075543999671936e-01 1.3586421310901642e-01</leafValues></_>
        <_>
          <internalNodes>
            0 -1 400 3.5346325603313744e-05</internalNodes>
          <leafValues>
            -1.8566602468490601e-01 2.0086474716663361e-01</leafValues></_>
        <_>
          <internalNodes>
            0 -1 302 4.1119657456874847e-02</internalNodes>
          <leafValues>
            4.1841845959424973e-02 -9.6712327003479004e-01</leafValues></_>
        <_>
          <internalNodes>
            0 -1 391 -1.7717226874083281e-03</internalNodes>
          <leafValues>
            3.5562267899513245e-01 -1.2064268440008163e-01</leafValues></_>
        <_>
          <internalNodes>
            0 -1 282 2.5247098878026009e-02</internalNodes>
          <leafValues>
            6.5386876463890076e-02 -5.9636682271957397e-01</leafValues></_>
        <_>
          <internalNodes>
            0 -1 30 6.2839388847351074e-02</internalNodes>
          <leafValues>
            7.8164435923099518e-02 -4.5495387911796570e-01</leafValues></_>
        <_>
          <internalNodes>
            0 -1 173 -6.9351069629192352e-02</internalNodes>
          <leafValues>
            -4.0302228927612305e-01 8.9706972241401672e-02</leafValues></_>
        <_>
          <internalNodes>
            0 -1 269 1.7123187426477671e-03</internalNodes>
          <leafValues>
            -1.5374492108821869e-01 2.6589041948318481e-01</leafValues></_>
        <_>
          <internalNodes>
            0 -1 268 -3.9279955672100186e-05</internalNodes>
          <leafValues>
            1.9167919456958771e-01 -1.9024960696697235e-01</leafValues></_>
        <_>
          <internalNodes>
            0 -1 553 -2.9090708121657372e-03</internalNodes>
          <leafValues>
            -6.6257327795028687e-01 5.6016426533460617e-02</leafValues></_>
        <_>
          <internalNodes>
            0 -1 178 1.2391121126711369e-03</internalNodes>
          <leafValues>
            -1.3489907979965210e-01 2.9704573750495911e-01</leafValues></_>
        <_>
          <internalNodes>
            0 -1 118 1.3317502452991903e-04</internalNodes>
          <leafValues>
            -2.2328060865402222e-01 1.8372596800327301e-01</leafValues></_>
        <_>
          <internalNodes>
            0 -1 517 -4.8816709750099108e-05</internalNodes>
          <leafValues>
            2.1199363470077515e-01 -1.8014007806777954e-01</leafValues></_>
        <_>
          <internalNodes>
            0 -1 374 2.9087495058774948e-02</internalNodes>
          <leafValues>
            -1.2409033626317978e-01 3.4679388999938965e-01</leafValues></_>
        <_>
          <internalNodes>
            0 -1 448 -1.4209859073162079e-03</internalNodes>
          <leafValues>
            2.3238071799278259e-01 -1.8275387585163116e-01</leafValues></_>
        <_>
          <internalNodes>
            0 -1 211 -4.4138994999229908e-03</internalNodes>
          <leafValues>
            -7.1421897411346436e-01 5.7658899575471878e-02</leafValues></_>
        <_>
          <internalNodes>
            0 -1 333 -4.2568187927827239e-04</internalNodes>
          <leafValues>
            2.7655041217803955e-01 -1.3307195901870728e-01</leafValues></_>
        <_>
          <internalNodes>
            0 -1 425 -2.8093217406421900e-04</internalNodes>
          <leafValues>
            1.8394902348518372e-01 -1.9677542150020599e-01</leafValues></_>
        <_>
          <internalNodes>
            0 -1 426 5.0615780055522919e-03</internalNodes>
          <leafValues>
            -1.5454332530498505e-01 2.6564565300941467e-01</leafValues></_>
        <_>
          <internalNodes>
            0 -1 114 1.4781269244849682e-02</internalNodes>
          <leafValues>
            -1.0586523264646530e-01 3.9744967222213745e-01</leafValues></_>
        <_>
          <internalNodes>
            0 -1 561 -4.3859943980351090e-04</internalNodes>
          <leafValues>
            -3.9582297205924988e-01 9.9226661026477814e-02</leafValues></_></weakClassifiers></_>
    <!-- stage 7 -->
    <_>
      <maxWeakCount>30</maxWeakCount>
      <stageThreshold>-1.2000538110733032e+00</stageThreshold>
      <weakClassifiers>
        <_>
          <internalNodes>
            0 -1 466 9.2964343726634979e-02</internalNodes>
          <leafValues>
            -4.3033102154731750e-01 2.6424869894981384e-01</leafValues></_>
        <_>
          <internalNodes>
            0 -1 546 1.3887539971619844e-03</internalNodes>
          <leafValues>
            8.2749255001544952e-02 -5.5284994840621948e-01</leafValues></_>
        <_>
          <internalNodes>
            0 -1 99 -8.1296145915985107e-02</internalNodes>
          <leafValues>
            -9.1881603002548218e-01 4.0814585983753204e-02</leafValues></_>
        <_>
          <internalNodes>
            0 -1 501 1.4913556515239179e-04</internalNodes>
          <leafValues>
            1.2730982899665833e-01 -3.7706631422042847e-01</leafValues></_>
        <_>
          <internalNodes>
            0 -1 258 -2.6773885110742413e-05</internalNodes>
          <leafValues>
            2.1169333159923553e-01 -2.1060365438461304e-01</leafValues></_>
        <_>
          <internalNodes>
            0 -1 562 2.0605746249202639e-04</internalNodes>
          <leafValues>
            1.1952996999025345e-01 -3.2418385148048401e-01</leafValues></_>
        <_>
          <internalNodes>
            0 -1 276 1.8975613056682050e-04</internalNodes>
          <leafValues>
            -1.4735013246536255e-01 2.7549466490745544e-01</leafValues></_>
        <_>
          <internalNodes>
            0 -1 9 4.2225867509841919e-03</internalNodes>
          <leafValues>
            5.9208091348409653e-02 -5.9055829048156738e-01</leafValues></_>
        <_>
          <internalNodes>
            0 -1 218 -4.4925890862941742e-02</internalNodes>
          <leafValues>
            -4.0964189171791077e-01 1.0125973075628281e-01</leafValues></_>
        <_>
          <internalNodes>
            0 -1 54 1.3895605225116014e-03</internalNodes>
          <leafValues>
            9.1436907649040222e-02 -4.4289892911911011e-01</leafValues></_>
        <_>
          <internalNodes>
            0 -1 212 -6.2164358794689178e-02</internalNodes>
          <leafValues>
            5.2924913167953491e-01 -7.5434595346450806e-02</leafValues></_>
        <_>
          <internalNodes>
            0 -1 52 -2.2903078934177756e-04</internalNodes>
          <leafValues>
            -2.7732223272323608e-01 1.3447676599025726e-01</leafValues></_>
        <_>
          <internalNodes>
            0 -1 361 -5.8626371901482344e-04</internalNodes>
          <leafValues>
            2.2898915410041809e-01 -1.6906139254570007e-01</leafValues></_>
        <_>
          <internalNodes>
            0 -1 210 -8.1405853852629662e-03</internalNodes>
          <leafValues>
            2.1347884833812714e-01 -1.7382708191871643e-01</leafValues></_>
        <_>
          <internalNodes>
            0 -1 491 2.4435311555862427e-02</internalNodes>
          <leafValues>
            6.8685129284858704e-02 -5.2106916904449463e-01</leafValues></_>
        <_>
          <internalNodes>
            0 -1 59 2.8651953471126035e-05</internalNodes>
          <leafValues>
            -2.2872725129127502e-01 1.6342832148075104e-01</leafValues></_>
        <_>
          <internalNodes>
            0 -1 158 -3.1129211187362671e-02</internalNodes>
          <leafValues>
            4.6202456951141357e-01 -8.3075568079948425e-02</leafValues></_>
        <_>
          <internalNodes>
            0 -1 184 -2.7549671940505505e-03</internalNodes>
          <leafValues>
            -5.2954435348510742e-01 6.7010879516601563e-02</leafValues></_>
        <_>
          <internalNodes>
            0 -1 237 7.0300640072673559e-04</internalNodes>
          <leafValues>
            7.4296921491622925e-02 -4.1590991616249084e-01</leafValues></_>
        <_>
          <internalNodes>
            0 -1 271 -1.5219859778881073e-03</internalNodes>
          <leafValues>
            3.3352470397949219e-01 -1.1297787725925446e-01</leafValues></_>
        <_>
          <internalNodes>
            0 -1 377 -7.3249399662017822e-02</internalNodes>
          <leafValues>
            -5.9127336740493774e-01 5.8369770646095276e-02</leafValues></_>
        <_>
          <internalNodes>
            0 -1 144 -6.8565472960472107e-02</internalNodes>
          <leafValues>
            2.5460049510002136e-01 -1.9142219424247742e-01</leafValues></_>
        <_>
          <internalNodes>
            0 -1 275 -9.4123668968677521e-02</internalNodes>
          <leafValues>
            5.6165796518325806e-01 -7.6402544975280762e-02</leafValues></_>
        <_>
          <internalNodes>
            0 -1 104 -3.5827390383929014e-03</internalNodes>
          <leafValues>
            5.1691341400146484e-01 -6.0349293053150177e-02</leafValues></_>
        <_>
          <internalNodes>
            0 -1 304 -1.2483221292495728e-01</internalNodes>
          <leafValues>
            -7.6430618762969971e-01 4.4231303036212921e-02</leafValues></_>
        <_>
          <internalNodes>
            0 -1 88 -2.7897771447896957e-02</internalNodes>
          <leafValues>
            -6.5218353271484375e-01 4.2825248092412949e-02</leafValues></_>
        <_>
          <internalNodes>
            0 -1 120 -1.7324617132544518e-02</internalNodes>
          <leafValues>
            2.6916810870170593e-01 -1.5507394075393677e-01</leafValues></_>
        <_>
          <internalNodes>
            0 -1 510 -3.4526827221270651e-05</internalNodes>
          <leafValues>
            1.8466800451278687e-01 -2.0195668935775757e-01</leafValues></_>
        <_>
          <internalNodes>
            0 -1 505 3.1694471836090088e-02</internalNodes>
          <leafValues>
            -5.9540253132581711e-02 6.3327109813690186e-01</leafValues></_>
        <_>
          <internalNodes>
            0 -1 407 -3.3291149884462357e-03</internalNodes>
          <leafValues>
            3.1781584024429321e-01 -1.2553665041923523e-01</leafValues></_></weakClassifiers></_>
    <!-- stage 8 -->
    <_>
      <maxWeakCount>34</maxWeakCount>
      <stageThreshold>-1.0259526968002319e+00</stageThreshold>
      <weakClassifiers>
        <_>
          <internalNodes>
            0 -1 166 -9.0875491499900818e-02</internalNodes>
          <leafValues>
            4.3089431524276733e-01 -4.0978816151618958e-01</leafValues></_>
        <_>
          <internalNodes>
            0 -1 7 -9.0352490544319153e-02</internalNodes>
          <leafValues>
            -9.3724805116653442e-01 3.4945437218993902e-03</leafValues></_>
        <_>
          <internalNodes>
            0 -1 6 -8.9139997959136963e-02</internalNodes>
          <leafValues>
            1. -6.2578078359365463e-03</leafValues></_>
        <_>
          <internalNodes>
            0 -1 6 -8.7305523455142975e-02</internalNodes>
          <leafValues>
            -9.4513285160064697e-01 1.6582930693402886e-03</leafValues></_>
        <_>
          <internalNodes>
            0 -1 6 -8.6596235632896423e-02</internalNodes>
          <leafValues>
            1. -1.2610325356945395e-03</leafValues></_>
        <_>
          <internalNodes>
            0 -1 6 -8.5398495197296143e-02</internalNodes>
          <leafValues>
            -9.5186787843704224e-01 2.2197552025318146e-03</leafValues></_>
        <_>
          <internalNodes>
            0 -1 5 -7.4388056993484497e-02</internalNodes>
          <leafValues>
            7.3016983270645142e-01 -8.0577759072184563e-03</leafValues></_>
        <_>
          <internalNodes>
            0 -1 75 2.5700137484818697e-04</internalNodes>
          <leafValues>
            1.2833422422409058e-01 -3.9644816517829895e-01</leafValues></_>
        <_>
          <internalNodes>
            0 -1 382 -1.2188381515443325e-03</internalNodes>
          <leafValues>
            2.1923273801803589e-01 -1.8460609018802643e-01</leafValues></_>
        <_>
          <internalNodes>
            0 -1 117 5.7071908377110958e-03</internalNodes>
          <leafValues>
            8.6525335907936096e-02 -4.7205236554145813e-01</leafValues></_>
        <_>
          <internalNodes>
            0 -1 15 -5.9256440727040172e-04</internalNodes>
          <leafValues>
            -4.3023982644081116e-01 1.2513679265975952e-01</leafValues></_>
        <_>
          <internalNodes>
            0 -1 440 1.0331445373594761e-03</internalNodes>
          <leafValues>
            -1.0723056644201279e-01 4.2661795020103455e-01</leafValues></_>
        <_>
          <internalNodes>
            0 -1 61 -1.0080900974571705e-03</internalNodes>
          <leafValues>
            1.6173891723155975e-01 -2.1613986790180206e-01</leafValues></_>
        <_>
          <internalNodes>
            0 -1 308 3.0470534693449736e-04</internalNodes>
          <leafValues>
            -1.2238232046365738e-01 2.6412308216094971e-01</leafValues></_>
        <_>
          <internalNodes>
            0 -1 35 -9.9949268624186516e-03</internalNodes>
          <leafValues>
            3.3056870102882385e-01 -1.0395524650812149e-01</leafValues></_>
        <_>
          <internalNodes>
            0 -1 23 4.4151850044727325e-02</internalNodes>
          <leafValues>
            -1.0195254534482956e-01 4.3526402115821838e-01</leafValues></_>
        <_>
          <internalNodes>
            0 -1 255 1.1618210701271892e-03</internalNodes>
          <leafValues>
            -8.6020328104496002e-02 4.1150256991386414e-01</leafValues></_>
        <_>
          <internalNodes>
            0 -1 26 3.8679987192153931e-03</internalNodes>
          <leafValues>
            7.3146522045135498e-02 -5.1312422752380371e-01</leafValues></_>
        <_>
          <internalNodes>
            0 -1 539 2.0494409836828709e-03</internalNodes>
          <leafValues>
            6.4417488873004913e-02 -5.0160020589828491e-01</leafValues></_>
        <_>
          <internalNodes>
            0 -1 445 -3.3763056853786111e-04</internalNodes>
          <leafValues>
            -3.6643692851066589e-01 8.8773570954799652e-02</leafValues></_>
        <_>
          <internalNodes>
            0 -1 522 -4.3866178020834923e-04</internalNodes>
          <leafValues>
            2.0452849566936493e-01 -1.7126509547233582e-01</leafValues></_>
        <_>
          <internalNodes>
            0 -1 96 -4.8340886831283569e-02</internalNodes>
          <leafValues>
            -8.2026958465576172e-01 3.7833530455827713e-02</leafValues></_>
        <_>
          <internalNodes>
            0 -1 384 -2.1110609173774719e-02</internalNodes>
          <leafValues>
            2.2085368633270264e-01 -1.5784005820751190e-01</leafValues></_>
        <_>
          <internalNodes>
            0 -1 477 -1.8964805640280247e-03</internalNodes>
          <leafValues>
            1.8741208314895630e-01 -2.0236457884311676e-01</leafValues></_>
        <_>
          <internalNodes>
            0 -1 479 -7.5980008114129305e-04</internalNodes>
          <leafValues>
            -3.1975919008255005e-01 1.1610311269760132e-01</leafValues></_>
        <_>
          <internalNodes>
            0 -1 137 -3.6067622900009155e-01</internalNodes>
          <leafValues>
            -5.0736683607101440e-01 6.1779566109180450e-02</leafValues></_>
        <_>
          <internalNodes>
            0 -1 459 -3.7410387449199334e-05</internalNodes>
          <leafValues>
            1.8665535748004913e-01 -1.9776420295238495e-01</leafValues></_>
        <_>
          <internalNodes>
            0 -1 141 6.2744691967964172e-02</internalNodes>
          <leafValues>
            5.2881091833114624e-02 -5.4436004161834717e-01</leafValues></_>
        <_>
          <internalNodes>
            0 -1 310 -2.4937689304351807e-03</internalNodes>
          <leafValues>
            2.6934197545051575e-01 -1.2002518028020859e-01</leafValues></_>
        <_>
          <internalNodes>
            0 -1 499 -6.6384661477059126e-04</internalNodes>
          <leafValues>
            2.1330013871192932e-01 -1.5452495217323303e-01</leafValues></_>
        <_>
          <internalNodes>
            0 -1 0 -8.1649149069562554e-04</internalNodes>
          <leafValues>
            -5.1879364252090454e-01 6.6196165978908539e-02</leafValues></_>
        <_>
          <internalNodes>
            0 -1 116 6.4617715543136001e-04</internalNodes>
          <leafValues>
            -2.0538261532783508e-01 1.6846610605716705e-01</leafValues></_>
        <_>
          <internalNodes>
            0 -1 223 5.3518675267696381e-02</internalNodes>
          <leafValues>
            5.2241984754800797e-02 -7.5246679782867432e-01</leafValues></_>
        <_>
          <internalNodes>
            0 -1 317 -2.6800997555255890e-02</internalNodes>
          <leafValues>
            2.9076850414276123e-01 -1.3616533577442169e-01</leafValues></_></weakClassifiers></_>
    <!-- stage 9 -->
    <_>
      <maxWeakCount>23</maxWeakCount>
      <stageThreshold>-1.1434154510498047e+00</stageThreshold>
      <weakClassifiers>
        <_>
          <internalNodes>
            0 -1 395 -1.1393876047804952e-03</internalNodes>
          <leafValues>
            4.6153846383094788e-01 -4.5190840959548950e-01</leafValues></_>
        <_>
          <internalNodes>
            0 -1 128 -3.5400902852416039e-03</internalNodes>
          <leafValues>
            4.8434674739837646e-01 -1.8117000162601471e-01</leafValues></_>
        <_>
          <internalNodes>
            0 -1 395 5.2379397675395012e-04</internalNodes>
          <leafValues>
            -1.6434185206890106e-01 4.7612065076828003e-01</leafValues></_>
        <_>
          <internalNodes>
            0 -1 281 1.1780804197769612e-04</internalNodes>
          <leafValues>
            2.0601251721382141e-01 -3.3747348189353943e-01</leafValues></_>
        <_>
          <internalNodes>
            0 -1 216 2.8814366669394076e-04</internalNodes>
          <leafValues>
            1.4787118136882782e-01 -3.9583364129066467e-01</leafValues></_>
        <_>
          <internalNodes>
            0 -1 435 -1.3724211603403091e-03</internalNodes>
          <leafValues>
            5.3185677528381348e-01 -1.0226797312498093e-01</leafValues></_>
        <_>
          <internalNodes>
            0 -1 126 2.2799423895776272e-03</internalNodes>
          <leafValues>
            -6.7296966910362244e-02 6.2916237115859985e-01</leafValues></_>
        <_>
          <internalNodes>
            0 -1 501 -2.7739498182199895e-04</internalNodes>
          <leafValues>
            -3.5197582840919495e-01 1.4236865937709808e-01</leafValues></_>
        <_>
          <internalNodes>
            0 -1 309 1.2392696226015687e-03</internalNodes>
          <leafValues>
            -6.7128494381904602e-02 6.3347095251083374e-01</leafValues></_>
        <_>
          <internalNodes>
            0 -1 500 1.7343575018458068e-04</internalNodes>
          <leafValues>
            1.5334263443946838e-01 -3.7892964482307434e-01</leafValues></_>
        <_>
          <internalNodes>
            0 -1 327 -2.6240001898258924e-03</internalNodes>
          <leafValues>
            3.4914237260818481e-01 -1.4069993793964386e-01</leafValues></_>
        <_>
          <internalNodes>
            0 -1 216 -3.8990078610368073e-04</internalNodes>
          <leafValues>
            -4.5506435632705688e-01 1.0404190421104431e-01</leafValues></_>
        <_>
          <internalNodes>
            0 -1 204 -5.6506022810935974e-03</internalNodes>
          <leafValues>
            3.8544404506683350e-01 -1.2511505186557770e-01</leafValues></_>
        <_>
          <internalNodes>
            0 -1 66 -2.1279485372360796e-04</internalNodes>
          <leafValues>
            -3.3540260791778564e-01 1.4100907742977142e-01</leafValues></_>
        <_>
          <internalNodes>
            0 -1 191 1.5209462493658066e-02</internalNodes>
          <leafValues>
            -7.6668344438076019e-02 6.1953139305114746e-01</leafValues></_>
        <_>
          <internalNodes>
            0 -1 353 -1.4697037637233734e-01</internalNodes>
          <leafValues>
            -8.0860686302185059e-01 6.3525103032588959e-02</leafValues></_>
        <_>
          <internalNodes>
            0 -1 388 -1.3472612481564283e-03</internalNodes>
          <leafValues>
            3.9229568839073181e-01 -1.3826960325241089e-01</leafValues></_>
        <_>
          <internalNodes>
            0 -1 331 -7.0582679472863674e-04</internalNodes>
          <leafValues>
            2.6388278603553772e-01 -1.6441756486892700e-01</leafValues></_>
        <_>
          <internalNodes>
            0 -1 547 4.0974159492179751e-04</internalNodes>
          <leafValues>
            1.4644356071949005e-01 -3.3847284317016602e-01</leafValues></_>
        <_>
          <internalNodes>
            0 -1 541 -7.0066181942820549e-03</internalNodes>
          <leafValues>
            4.4689035415649414e-01 -1.1825387179851532e-01</leafValues></_>
        <_>
          <internalNodes>
            0 -1 495 -5.7008424773812294e-03</internalNodes>
          <leafValues>
            -5.8085429668426514e-01 8.0823585391044617e-02</leafValues></_>
        <_>
          <internalNodes>
            0 -1 386 -1.9627832807600498e-03</internalNodes>
          <leafValues>
            4.4394370913505554e-01 -1.1553418636322021e-01</leafValues></_>
        <_>
          <internalNodes>
            0 -1 406 -2.4796554818749428e-02</internalNodes>
          <leafValues>
            -3.5702440142631531e-01 1.3517907261848450e-01</leafValues></_></weakClassifiers></_>
    <!-- stage 10 -->
    <_>
      <maxWeakCount>28</maxWeakCount>
      <stageThreshold>-1.2897777557373047e+00</stageThreshold>
      <weakClassifiers>
        <_>
          <internalNodes>
            0 -1 274 -1.6445121727883816e-03</internalNodes>
          <leafValues>
            6.5079367160797119e-01 -4.3191799521446228e-01</leafValues></_>
        <_>
          <internalNodes>
            0 -1 305 5.5561866611242294e-04</internalNodes>
          <leafValues>
            -2.2761291265487671e-01 3.6816063523292542e-01</leafValues></_>
        <_>
          <internalNodes>
            0 -1 325 -1.1616058181971312e-03</internalNodes>
          <leafValues>
            7.0112937688827515e-01 -4.8965714871883392e-02</leafValues></_>
        <_>
          <internalNodes>
            0 -1 288 8.4136170335114002e-04</internalNodes>
          <leafValues>
            -1.4547884464263916e-01 3.9764621853828430e-01</leafValues></_>
        <_>
          <internalNodes>
            0 -1 368 2.3859471548348665e-03</internalNodes>
          <leafValues>
            -7.9244911670684814e-02 6.5705657005310059e-01</leafValues></_>
        <_>
          <internalNodes>
            0 -1 181 -3.1792195513844490e-03</internalNodes>
          <leafValues>
            3.4552085399627686e-01 -1.3504800200462341e-01</leafValues></_>
        <_>
          <internalNodes>
            0 -1 208 -2.6899421587586403e-02</internalNodes>
          <leafValues>
            4.2203336954116821e-01 -1.0323821008205414e-01</leafValues></_>
        <_>
          <internalNodes>
            0 -1 300 -4.9631868023425341e-04</internalNodes>
          <leafValues>
            3.6273148655891418e-01 -1.2205944210290909e-01</leafValues></_>
        <_>
          <internalNodes>
            0 -1 260 1.6596075147390366e-02</internalNodes>
          <leafValues>
            -9.7389124333858490e-02 4.1516390442848206e-01</leafValues></_>
        <_>
          <internalNodes>
            0 -1 156 1.5520812943577766e-02</internalNodes>
          <leafValues>
            8.3858810365200043e-02 -5.1919615268707275e-01</leafValues></_>
        <_>
          <internalNodes>
            0 -1 250 3.0666585080325603e-03</internalNodes>
          <leafValues>
            -6.9653622806072235e-02 5.2303761243820190e-01</leafValues></_>
        <_>
          <internalNodes>
            0 -1 411 -1.7628257628530264e-03</internalNodes>
          <leafValues>
            5.1635330915451050e-01 -7.6646022498607635e-02</leafValues></_>
        <_>
          <internalNodes>
            0 -1 285 9.8985377699136734e-03</internalNodes>
          <leafValues>
            -4.3019618839025497e-02 8.6231249570846558e-01</leafValues></_>
        <_>
          <internalNodes>
            0 -1 319 -2.6767882518470287e-03</internalNodes>
          <leafValues>
            -3.6554992198944092e-01 1.1472922563552856e-01</leafValues></_>
        <_>
          <internalNodes>
            0 -1 482 -1.1551356874406338e-03</internalNodes>
          <leafValues>
            3.5185796022415161e-01 -1.1061839759349823e-01</leafValues></_>
        <_>
          <internalNodes>
            0 -1 192 -3.3667304087430239e-03</internalNodes>
          <leafValues>
            -4.5823013782501221e-01 9.1340810060501099e-02</leafValues></_>
        <_>
          <internalNodes>
            0 -1 164 -2.8445944190025330e-04</internalNodes>
          <leafValues>
            -3.3960065245628357e-01 1.1967161297798157e-01</leafValues></_>
        <_>
          <internalNodes>
            0 -1 409 1.3772558886557817e-03</internalNodes>
          <leafValues>
            -7.4155889451503754e-02 6.1548137664794922e-01</leafValues></_>
        <_>
          <internalNodes>
            0 -1 355 -2.9633687809109688e-03</internalNodes>
          <leafValues>
            3.2127499580383301e-01 -1.1730331182479858e-01</leafValues></_>
        <_>
          <internalNodes>
            0 -1 229 5.8426773175597191e-03</internalNodes>
          <leafValues>
            9.0606346726417542e-02 -4.7484722733497620e-01</leafValues></_>
        <_>
          <internalNodes>
            0 -1 222 4.7144498239504173e-05</internalNodes>
          <leafValues>
            -2.3568205535411835e-01 1.7876535654067993e-01</leafValues></_>
        <_>
          <internalNodes>
            0 -1 248 7.0370314642786980e-03</internalNodes>
          <leafValues>
            -8.8064573705196381e-02 4.2032054066658020e-01</leafValues></_>
        <_>
          <internalNodes>
            0 -1 198 -2.7566600590944290e-02</internalNodes>
          <leafValues>
            -4.0306037664413452e-01 1.0598646849393845e-01</leafValues></_>
        <_>
          <internalNodes>
            0 -1 247 3.0192910344339907e-05</internalNodes>
          <leafValues>
            -2.1554177999496460e-01 1.8575748801231384e-01</leafValues></_>
        <_>
          <internalNodes>
            0 -1 209 2.9236813134048134e-05</internalNodes>
          <leafValues>
            -1.7545785009860992e-01 2.0603080093860626e-01</leafValues></_>
        <_>
          <internalNodes>
            0 -1 458 2.0010001026093960e-03</internalNodes>
          <leafValues>
            -7.6191857457160950e-02 4.9252486228942871e-01</leafValues></_>
        <_>
          <internalNodes>
            0 -1 22 -1.2103120097890496e-03</internalNodes>
          <leafValues>
            -2.7260273694992065e-01 1.4615738391876221e-01</leafValues></_>
        <_>
          <internalNodes>
            0 -1 372 2.7435831725597382e-04</internalNodes>
          <leafValues>
            -1.6477432847023010e-01 2.2976225614547729e-01</leafValues></_></weakClassifiers></_>
    <!-- stage 11 -->
    <_>
      <maxWeakCount>27</maxWeakCount>
      <stageThreshold>-1.1064029932022095e+00</stageThreshold>
      <weakClassifiers>
        <_>
          <internalNodes>
            0 -1 511 -1.3929568231105804e-02</internalNodes>
          <leafValues>
            9.2592591047286987e-01 -3.8803893327713013e-01</leafValues></_>
        <_>
          <internalNodes>
            0 -1 168 -1.0139136016368866e-01</internalNodes>
          <leafValues>
            3.1782454252243042e-01 -1.5793545544147491e-01</leafValues></_>
        <_>
          <internalNodes>
            0 -1 33 8.3421810995787382e-04</internalNodes>
          <leafValues>
            1.3952019810676575e-01 -3.3158525824546814e-01</leafValues></_>
        <_>
          <internalNodes>
            0 -1 356 -1.5412471257150173e-03</internalNodes>
          <leafValues>
            4.5032742619514465e-01 -1.0292874276638031e-01</leafValues></_>
        <_>
          <internalNodes>
            0 -1 167 1.2302452232688665e-03</internalNodes>
          <leafValues>
            9.0407140552997589e-02 -4.9993506073951721e-01</leafValues></_>
        <_>
          <internalNodes>
            0 -1 264 -7.3805727064609528e-02</internalNodes>
          <leafValues>
            -4.2642107605934143e-01 1.2616968154907227e-01</leafValues></_>
        <_>
          <internalNodes>
            0 -1 565 2.7471297653391957e-04</internalNodes>
          <leafValues>
            1.0086404532194138e-01 -3.6765509843826294e-01</leafValues></_>
        <_>
          <internalNodes>
            0 -1 320 1.7389945685863495e-02</internalNodes>
          <leafValues>
            -4.7345787286758423e-02 7.1755170822143555e-01</leafValues></_>
        <_>
          <internalNodes>
            0 -1 189 5.7106965687125921e-04</internalNodes>
          <leafValues>
            9.1385200619697571e-02 -4.5037445425987244e-01</leafValues></_>
        <_>
          <internalNodes>
            0 -1 335 -1.8204890657216311e-03</internalNodes>
          <leafValues>
            6.4881032705307007e-01 -6.3232831656932831e-02</leafValues></_>
        <_>
          <internalNodes>
            0 -1 46 -1.1266068369150162e-01</internalNodes>
          <leafValues>
            -7.8296488523483276e-01 5.2452865988016129e-02</leafValues></_>
        <_>
          <internalNodes>
            0 -1 183 1.5179462730884552e-02</internalNodes>
          <leafValues>
            -9.7552731633186340e-02 4.0806743502616882e-01</leafValues></_>
        <_>
          <internalNodes>
            0 -1 503 1.6338587738573551e-03</internalNodes>
          <leafValues>
            6.1382554471492767e-02 -5.4603332281112671e-01</leafValues></_>
        <_>
          <internalNodes>
            0 -1 60 7.1973167359828949e-04</internalNodes>
          <leafValues>
            1.0747822374105453e-01 -3.0766484141349792e-01</leafValues></_>
        <_>
          <internalNodes>
            0 -1 153 7.7623538672924042e-02</internalNodes>
          <leafValues>
            7.6741605997085571e-02 -4.9604025483131409e-01</leafValues></_>
        <_>
          <internalNodes>
            0 -1 441 6.2080444768071175e-03</internalNodes>
          <leafValues>
            -6.4372479915618896e-02 6.0537010431289673e-01</leafValues></_>
        <_>
          <internalNodes>
            0 -1 538 4.9632962327450514e-04</internalNodes>
          <leafValues>
            1.1851417273283005e-01 -3.3445140719413757e-01</leafValues></_>
        <_>
          <internalNodes>
            0 -1 265 -4.4286936521530151e-02</internalNodes>
          <leafValues>
            -7.2004842758178711e-01 5.1300220191478729e-02</leafValues></_>
        <_>
          <internalNodes>
            0 -1 414 -1.4018315123394132e-03</internalNodes>
          <leafValues>
            4.4556158781051636e-01 -8.2861714065074921e-02</leafValues></_>
        <_>
          <internalNodes>
            0 -1 100 -6.8182346876710653e-04</internalNodes>
          <leafValues>
            2.3724527657032013e-01 -1.3612781465053558e-01</leafValues></_>
        <_>
          <internalNodes>
            0 -1 259 2.3039650113787502e-04</internalNodes>
          <leafValues>
            1.4680521190166473e-01 -2.3823043704032898e-01</leafValues></_>
        <_>
          <internalNodes>
            0 -1 543 -8.5408042650669813e-05</internalNodes>
          <leafValues>
            1.5930701792240143e-01 -2.3365314304828644e-01</leafValues></_>
        <_>
          <internalNodes>
            0 -1 520 -1.3682859018445015e-02</internalNodes>
          <leafValues>
            6.9658833742141724e-01 -5.1555994898080826e-02</leafValues></_>
        <_>
          <internalNodes>
            0 -1 136 9.3620521947741508e-03</internalNodes>
          <leafValues>
            -1.7147506773471832e-01 2.0482778549194336e-01</leafValues></_>
        <_>
          <internalNodes>
            0 -1 504 -8.4794522263109684e-04</internalNodes>
          <leafValues>
            -3.3553901314735413e-01 1.1450872570276260e-01</leafValues></_>
        <_>
          <internalNodes>
            0 -1 262 3.2176598906517029e-02</internalNodes>
          <leafValues>
            -4.9607411026954651e-02 7.2102451324462891e-01</leafValues></_>
        <_>
          <internalNodes>
            0 -1 256 -1.0703112930059433e-03</internalNodes>
          <leafValues>
            3.7145718932151794e-01 -8.7788231670856476e-02</leafValues></_></weakClassifiers></_>
    <!-- stage 12 -->
    <_>
      <maxWeakCount>30</maxWeakCount>
      <stageThreshold>-1.1319639682769775e+00</stageThreshold>
      <weakClassifiers>
        <_>
          <internalNodes>
            0 -1 36 -3.8629963994026184e-02</internalNodes>
          <leafValues>
            2.5821596384048462e-01 -4.4018763303756714e-01</leafValues></_>
        <_>
          <internalNodes>
            0 -1 427 7.1486923843622208e-04</internalNodes>
          <leafValues>
            1.4402791857719421e-01 -3.1016811728477478e-01</leafValues></_>
        <_>
          <internalNodes>
            0 -1 47 2.1916950936429203e-04</internalNodes>
          <leafValues>
            1.3010214269161224e-01 -3.3526605367660522e-01</leafValues></_>
        <_>
          <internalNodes>
            0 -1 47 -2.0459844381548464e-04</internalNodes>
          <leafValues>
            -3.8441273570060730e-01 1.9953319430351257e-01</leafValues></_>
        <_>
          <internalNodes>
            0 -1 545 -7.3396775405853987e-04</internalNodes>
          <leafValues>
            -5.1643061637878418e-01 7.1225419640541077e-02</leafValues></_>
        <_>
          <internalNodes>
            0 -1 485 2.3174069356173277e-03</internalNodes>
          <leafValues>
            -8.1869982182979584e-02 4.9857771396636963e-01</leafValues></_>
        <_>
          <internalNodes>
            0 -1 567 -1.0301704751327634e-03</internalNodes>
          <leafValues>
            -5.6204223632812500e-01 5.7756662368774414e-02</leafValues></_>
        <_>
          <internalNodes>
            0 -1 434 3.7885550409555435e-03</internalNodes>
          <leafValues>
            -6.0492027550935745e-02 5.8419305086135864e-01</leafValues></_>
        <_>
          <internalNodes>
            0 -1 113 3.3670964185148478e-03</internalNodes>
          <leafValues>
            -1.7664149403572083e-01 2.0437513291835785e-01</leafValues></_>
        <_>
          <internalNodes>
            0 -1 464 4.9583602230995893e-04</internalNodes>
          <leafValues>
            1.3959047198295593e-01 -2.8097409009933472e-01</leafValues></_>
        <_>
          <internalNodes>
            0 -1 347 -2.1721214056015015e-02</internalNodes>
          <leafValues>
            8.2491576671600342e-01 -6.2188182026147842e-02</leafValues></_>
        <_>
          <internalNodes>
            0 -1 62 6.0728445649147034e-02</internalNodes>
          <leafValues>
            -6.1725277453660965e-02 4.6372053027153015e-01</leafValues></_>
        <_>
          <internalNodes>
            0 -1 57 -6.5298723056912422e-03</internalNodes>
          <leafValues>
            2.1315377950668335e-01 -1.4627110958099365e-01</leafValues></_>
        <_>
          <internalNodes>
            0 -1 201 -8.9019839651882648e-04</internalNodes>
          <leafValues>
            4.2234033346176147e-01 -8.9810937643051147e-02</leafValues></_>
        <_>
          <internalNodes>
            0 -1 214 -2.5645899586379528e-04</internalNodes>
          <leafValues>
            -3.1602448225021362e-01 1.2641757726669312e-01</leafValues></_>
        <_>
          <internalNodes>
            0 -1 227 3.4512442070990801e-03</internalNodes>
          <leafValues>
            -1.1070346087217331e-01 3.2482311129570007e-01</leafValues></_>
        <_>
          <internalNodes>
            0 -1 462 2.2831067326478660e-04</internalNodes>
          <leafValues>
            1.1381573975086212e-01 -3.3806124329566956e-01</leafValues></_>
        <_>
          <internalNodes>
            0 -1 43 3.0842996784485877e-04</internalNodes>
          <leafValues>
            -2.3139835894107819e-01 1.6467310488224030e-01</leafValues></_>
        <_>
          <internalNodes>
            0 -1 196 -2.3535737767815590e-02</internalNodes>
          <leafValues>
            2.9094454646110535e-01 -1.2867963314056396e-01</leafValues></_>
        <_>
          <internalNodes>
            0 -1 515 1.4756768359802663e-04</internalNodes>
          <leafValues>
            1.0902597755193710e-01 -2.7481764554977417e-01</leafValues></_>
        <_>
          <internalNodes>
            0 -1 530 -7.3923734016716480e-03</internalNodes>
          <leafValues>
            5.5173242092132568e-01 -6.8518236279487610e-02</leafValues></_>
        <_>
          <internalNodes>
            0 -1 70 -5.2717933431267738e-03</internalNodes>
          <leafValues>
            3.1977877020835876e-01 -1.0506556928157806e-01</leafValues></_>
        <_>
          <internalNodes>
            0 -1 132 -8.4519543452188373e-04</internalNodes>
          <leafValues>
            -2.9619958996772766e-01 1.2610538303852081e-01</leafValues></_>
        <_>
          <internalNodes>
            0 -1 364 1.9080804195255041e-03</internalNodes>
          <leafValues>
            -4.9994196742773056e-02 6.4200848340988159e-01</leafValues></_>
        <_>
          <internalNodes>
            0 -1 147 5.2718989551067352e-02</internalNodes>
          <leafValues>
            -7.0327937602996826e-02 4.8076114058494568e-01</leafValues></_>
        <_>
          <internalNodes>
            0 -1 556 -5.3666369058191776e-04</internalNodes>
          <leafValues>
            -4.4222599267959595e-01 9.3078255653381348e-02</leafValues></_>
        <_>
          <internalNodes>
            0 -1 238 9.4815855845808983e-05</internalNodes>
          <leafValues>
            -2.0169390738010406e-01 1.8206951022148132e-01</leafValues></_>
        <_>
          <internalNodes>
            0 -1 18 3.5960888490080833e-03</internalNodes>
          <leafValues>
            -1.8302644789218903e-01 1.9009278714656830e-01</leafValues></_>
        <_>
          <internalNodes>
            0 -1 135 3.1915740692056715e-05</internalNodes>
          <leafValues>
            -2.0031376183032990e-01 1.6792634129524231e-01</leafValues></_>
        <_>
          <internalNodes>
            0 -1 60 -1.6339271678589284e-04</internalNodes>
          <leafValues>
            -2.9081401228904724e-01 1.3158927857875824e-01</leafValues></_></weakClassifiers></_>
    <!-- stage 13 -->
    <_>
      <maxWeakCount>32</maxWeakCount>
      <stageThreshold>-1.1092778444290161e+00</stageThreshold>
      <weakClassifiers>
        <_>
          <internalNodes>
            0 -1 13 -5.5675927549600601e-02</internalNodes>
          <leafValues>
            4.0157479047775269e-01 -4.0952381491661072e-01</leafValues></_>
        <_>
          <internalNodes>
            0 -1 180 3.2094200141727924e-03</internalNodes>
          <leafValues>
            -2.4729703366756439e-01 1.6134442389011383e-01</leafValues></_>
        <_>
          <internalNodes>
            0 -1 452 -4.0841577574610710e-03</internalNodes>
          <leafValues>
            1.8179151415824890e-01 -2.1324017643928528e-01</leafValues></_>
        <_>
          <internalNodes>
            0 -1 550 -3.2327647204510868e-05</internalNodes>
          <leafValues>
            1.7647697031497955e-01 -1.9927287101745605e-01</leafValues></_>
        <_>
          <internalNodes>
            0 -1 246 -6.1167150735855103e-02</internalNodes>
          <leafValues>
            3.1691762804985046e-01 -9.3070782721042633e-02</leafValues></_>
        <_>
          <internalNodes>
            0 -1 463 -1.9328366033732891e-04</internalNodes>
          <leafValues>
            -3.3777987957000732e-01 1.0842806100845337e-01</leafValues></_>
        <_>
          <internalNodes>
            0 -1 339 -3.9620697498321533e-02</internalNodes>
          <leafValues>
            4.7824886441230774e-01 -6.6653452813625336e-02</leafValues></_>
        <_>
          <internalNodes>
            0 -1 76 -4.7213383950293064e-03</internalNodes>
          <leafValues>
            3.3368429541587830e-01 -1.0691265761852264e-01</leafValues></_>
        <_>
          <internalNodes>
            0 -1 472 5.2503432380035520e-04</internalNodes>
          <leafValues>
            -1.0360790044069290e-01 3.3717444539070129e-01</leafValues></_>
        <_>
          <internalNodes>
            0 -1 119 3.8394122384488583e-05</internalNodes>
          <leafValues>
            -1.6839094460010529e-01 1.9650781154632568e-01</leafValues></_>
        <_>
          <internalNodes>
            0 -1 3 -2.4041724391281605e-03</internalNodes>
          <leafValues>
            -5.8177709579467773e-01 6.1691891402006149e-02</leafValues></_>
        <_>
          <internalNodes>
            0 -1 387 -3.7569522857666016e-02</internalNodes>
          <leafValues>
            -9.3345212936401367e-01 2.7921345084905624e-02</leafValues></_>
        <_>
          <internalNodes>
            0 -1 329 -8.8277203030884266e-04</internalNodes>
          <leafValues>
            2.2898104786872864e-01 -1.5220288932323456e-01</leafValues></_>
        <_>
          <internalNodes>
            0 -1 266 -1.8257886171340942e-02</internalNodes>
          <leafValues>
            -4.1249132156372070e-01 6.9069601595401764e-02</leafValues></_>
        <_>
          <internalNodes>
            0 -1 460 -1.6212188347708434e-04</internalNodes>
          <leafValues>
            -2.8431981801986694e-01 1.0302434861660004e-01</leafValues></_>
        <_>
          <internalNodes>
            0 -1 235 -3.4257398510817438e-05</internalNodes>
          <leafValues>
            1.6364960372447968e-01 -1.8064667284488678e-01</leafValues></_>
        <_>
          <internalNodes>
            0 -1 554 6.1323447152972221e-04</internalNodes>
          <leafValues>
            8.2610860466957092e-02 -4.0100243687629700e-01</leafValues></_>
        <_>
          <internalNodes>
            0 -1 228 -8.9368387125432491e-04</internalNodes>
          <leafValues>
            2.2529481351375580e-01 -1.5225429832935333e-01</leafValues></_>
        <_>
          <internalNodes>
            0 -1 566 -1.6898526519071311e-04</internalNodes>
          <leafValues>
            -2.4963136017322540e-01 1.3309086859226227e-01</leafValues></_>
        <_>
          <internalNodes>
            0 -1 509 -3.0111386877251789e-05</internalNodes>
          <leafValues>
            1.6247479617595673e-01 -2.0429377257823944e-01</leafValues></_>
        <_>
          <internalNodes>
            0 -1 454 1.6908776015043259e-03</internalNodes>
          <leafValues>
            -5.9390313923358917e-02 5.7147121429443359e-01</leafValues></_>
        <_>
          <internalNodes>
            0 -1 350 -2.0875157788395882e-02</internalNodes>
          <leafValues>
            -5.3769975900650024e-01 7.2601862251758575e-02</leafValues></_>
        <_>
          <internalNodes>
            0 -1 148 -1.2813524808734655e-03</internalNodes>
          <leafValues>
            2.6310133934020996e-01 -1.2483046948909760e-01</leafValues></_>
        <_>
          <internalNodes>
            0 -1 131 9.4710215926170349e-03</internalNodes>
          <leafValues>
            3.9872836321592331e-02 -7.4137955904006958e-01</leafValues></_>
        <_>
          <internalNodes>
            0 -1 254 -9.2237163335084915e-04</internalNodes>
          <leafValues>
            2.0985236763954163e-01 -1.5409183502197266e-01</leafValues></_>
        <_>
          <internalNodes>
            0 -1 521 -6.9270236417651176e-04</internalNodes>
          <leafValues>
            -2.9823362827301025e-01 9.7164176404476166e-02</leafValues></_>
        <_>
          <internalNodes>
            0 -1 523 -1.8723595887422562e-02</internalNodes>
          <leafValues>
            3.8044863939285278e-01 -7.8378655016422272e-02</leafValues></_>
        <_>
          <internalNodes>
            0 -1 512 -2.2430235985666513e-03</internalNodes>
          <leafValues>
            2.3050418496131897e-01 -1.6983708739280701e-01</leafValues></_>
        <_>
          <internalNodes>
            0 -1 524 3.9108600467443466e-03</internalNodes>
          <leafValues>
            -1.2711422145366669e-01 2.6928982138633728e-01</leafValues></_>
        <_>
          <internalNodes>
            0 -1 507 -5.0791366957128048e-03</internalNodes>
          <leafValues>
            -3.6168897151947021e-01 9.7577512264251709e-02</leafValues></_>
        <_>
          <internalNodes>
            0 -1 401 -2.4462680448777974e-04</internalNodes>
          <leafValues>
            -2.8934139013290405e-01 1.0525676608085632e-01</leafValues></_>
        <_>
          <internalNodes>
            0 -1 380 4.1707083582878113e-03</internalNodes>
          <leafValues>
            -1.1344106495380402e-01 2.6923272013664246e-01</leafValues></_></weakClassifiers></_>
    <!-- stage 14 -->
    <_>
      <maxWeakCount>33</maxWeakCount>
      <stageThreshold>-1.0451142787933350e+00</stageThreshold>
      <weakClassifiers>
        <_>
          <internalNodes>
            0 -1 438 1.3753491220995784e-03</internalNodes>
          <leafValues>
            -4.2467826604843140e-01 3.0994153022766113e-01</leafValues></_>
        <_>
          <internalNodes>
            0 -1 369 6.3885813578963280e-03</internalNodes>
          <leafValues>
            -1.0318945348262787e-01 5.4614168405532837e-01</leafValues></_>
        <_>
          <internalNodes>
            0 -1 293 1.6123368404805660e-03</internalNodes>
          <leafValues>
            -6.7357830703258514e-02 5.5868870019912720e-01</leafValues></_>
        <_>
          <internalNodes>
            0 -1 244 -1.5475096181035042e-02</internalNodes>
          <leafValues>
            -2.6308298110961914e-01 1.2009712308645248e-01</leafValues></_>
        <_>
          <internalNodes>
            0 -1 551 3.5770493559539318e-04</internalNodes>
          <leafValues>
            8.1194542348384857e-02 -4.0484338998794556e-01</leafValues></_>
        <_>
          <internalNodes>
            0 -1 526 1.4632083475589752e-02</internalNodes>
          <leafValues>
            -5.5659875273704529e-02 4.7292393445968628e-01</leafValues></_>
        <_>
          <internalNodes>
            0 -1 111 -1.7811249708756804e-03</internalNodes>
          <leafValues>
            -4.9838951230049133e-01 7.6701246201992035e-02</leafValues></_>
        <_>
          <internalNodes>
            0 -1 465 -1.9428852945566177e-02</internalNodes>
          <leafValues>
            -4.6079823374748230e-01 7.2324581444263458e-02</leafValues></_>
        <_>
          <internalNodes>
            0 -1 537 -4.5132928062230349e-04</internalNodes>
          <leafValues>
            -3.3337107300758362e-01 8.7749622762203217e-02</leafValues></_>
        <_>
          <internalNodes>
            0 -1 362 1.1508166790008545e-03</internalNodes>
          <leafValues>
            -6.6578283905982971e-02 4.3521428108215332e-01</leafValues></_>
        <_>
          <internalNodes>
            0 -1 155 7.9093588283285499e-04</internalNodes>
          <leafValues>
            -7.7123954892158508e-02 3.7589740753173828e-01</leafValues></_>
        <_>
          <internalNodes>
            0 -1 474 -3.6433448258321732e-05</internalNodes>
          <leafValues>
            1.6056138277053833e-01 -1.8830579519271851e-01</leafValues></_>
        <_>
          <internalNodes>
            0 -1 508 -3.0225775844883174e-05</internalNodes>
          <leafValues>
            1.6380096971988678e-01 -1.7792072892189026e-01</leafValues></_>
        <_>
          <internalNodes>
            0 -1 125 -1.6914244741201401e-02</internalNodes>
          <leafValues>
            4.0358746051788330e-01 -6.8894118070602417e-02</leafValues></_>
        <_>
          <internalNodes>
            0 -1 186 -4.2752157896757126e-03</internalNodes>
          <leafValues>
            -5.4181402921676636e-01 6.0178268700838089e-02</leafValues></_>
        <_>
          <internalNodes>
            0 -1 357 -7.3722261004149914e-04</internalNodes>
          <leafValues>
            3.3994978666305542e-01 -9.4963826239109039e-02</leafValues></_>
        <_>
          <internalNodes>
            0 -1 405 1.4361414359882474e-03</internalNodes>
          <leafValues>
            6.5045408904552460e-02 -4.8810502886772156e-01</leafValues></_>
        <_>
          <internalNodes>
            0 -1 488 4.1365213692188263e-03</internalNodes>
          <leafValues>
            -7.7299319207668304e-02 4.4035786390304565e-01</leafValues></_>
        <_>
          <internalNodes>
            0 -1 220 2.1172558888792992e-02</internalNodes>
          <leafValues>
            -5.1822740584611893e-02 5.7361900806427002e-01</leafValues></_>
        <_>
          <internalNodes>
            0 -1 263 -4.8997639678418636e-03</internalNodes>
          <leafValues>
            -4.3879351019859314e-01 6.9834433495998383e-02</leafValues></_>
        <_>
          <internalNodes>
            0 -1 34 -7.5123985297977924e-03</internalNodes>
          <leafValues>
            4.5585748553276062e-01 -7.4209235608577728e-02</leafValues></_>
        <_>
          <internalNodes>
            0 -1 375 9.1750070452690125e-02</internalNodes>
          <leafValues>
            -5.6129492819309235e-02 5.3442102670669556e-01</leafValues></_>
        <_>
          <internalNodes>
            0 -1 404 -3.3405929803848267e-02</internalNodes>
          <leafValues>
            -3.8744834065437317e-01 9.5382235944271088e-02</leafValues></_>
        <_>
          <internalNodes>
            0 -1 123 5.0267949700355530e-03</internalNodes>
          <leafValues>
            1.5117327868938446e-01 -2.0135195553302765e-01</leafValues></_>
        <_>
          <internalNodes>
            0 -1 38 -2.4679186753928661e-04</internalNodes>
          <leafValues>
            -3.0875638127326965e-01 9.9746726453304291e-02</leafValues></_>
        <_>
          <internalNodes>
            0 -1 39 3.3262086799368262e-04</internalNodes>
          <leafValues>
            1.1915329098701477e-01 -2.9344460368156433e-01</leafValues></_>
        <_>
          <internalNodes>
            0 -1 71 -1.1871410242747515e-04</internalNodes>
          <leafValues>
            1.6144026815891266e-01 -1.8312968313694000e-01</leafValues></_>
        <_>
          <internalNodes>
            0 -1 139 -4.3824398890137672e-03</internalNodes>
          <leafValues>
            2.5445306301116943e-01 -1.2227682024240494e-01</leafValues></_>
        <_>
          <internalNodes>
            0 -1 498 -1.4128175098448992e-04</internalNodes>
          <leafValues>
            -2.0053687691688538e-01 1.6159819066524506e-01</leafValues></_>
        <_>
          <internalNodes>
            0 -1 172 7.5436476618051529e-03</internalNodes>
          <leafValues>
            -7.1670018136501312e-02 4.3202218413352966e-01</leafValues></_>
        <_>
          <internalNodes>
            0 -1 51 5.6444939225912094e-02</internalNodes>
          <leafValues>
            4.7428637742996216e-02 -7.5683206319808960e-01</leafValues></_>
        <_>
          <internalNodes>
            0 -1 142 4.5444309711456299e-02</internalNodes>
          <leafValues>
            5.1091365516185760e-02 -5.3980088233947754e-01</leafValues></_>
        <_>
          <internalNodes>
            0 -1 75 -5.6189170572906733e-04</internalNodes>
          <leafValues>
            -3.7247076630592346e-01 7.0616200566291809e-02</leafValues></_></weakClassifiers></_>
    <!-- stage 15 -->
    <_>
      <maxWeakCount>37</maxWeakCount>
      <stageThreshold>-1.0641651153564453e+00</stageThreshold>
      <weakClassifiers>
        <_>
          <internalNodes>
            0 -1 159 1.2437836825847626e-01</internalNodes>
          <leafValues>
            -4.0100070834159851e-01 5.6989246606826782e-01</leafValues></_>
        <_>
          <internalNodes>
            0 -1 548 -2.0652009698096663e-04</internalNodes>
          <leafValues>
            1.5573434531688690e-01 -2.2327655553817749e-01</leafValues></_>
        <_>
          <internalNodes>
            0 -1 341 1.6515634488314390e-03</internalNodes>
          <leafValues>
            -3.8992658257484436e-02 5.6633043289184570e-01</leafValues></_>
        <_>
          <internalNodes>
            0 -1 190 -5.6169773451983929e-03</internalNodes>
          <leafValues>
            2.2774934768676758e-01 -1.3598321378231049e-01</leafValues></_>
        <_>
          <internalNodes>
            0 -1 328 -4.9064442282542586e-04</internalNodes>
          <leafValues>
            3.0429029464721680e-01 -9.4069026410579681e-02</leafValues></_>
        <_>
          <internalNodes>
            0 -1 163 -1.2840844283346087e-04</internalNodes>
          <leafValues>
            1.6829694807529449e-01 -1.7567375302314758e-01</leafValues></_>
        <_>
          <internalNodes>
            0 -1 518 2.2584114223718643e-02</internalNodes>
          <leafValues>
            -1.4605603180825710e-02 5.1066547632217407e-01</leafValues></_>
        <_>
          <internalNodes>
            0 -1 205 6.1625838279724121e-02</internalNodes>
          <leafValues>
            -7.9514853656291962e-02 4.9570581316947937e-01</leafValues></_>
        <_>
          <internalNodes>
            0 -1 63 2.5551330298185349e-02</internalNodes>
          <leafValues>
            -9.4164244830608368e-02 3.7075686454772949e-01</leafValues></_>
        <_>
          <internalNodes>
            0 -1 103 -3.6961734294891357e-02</internalNodes>
          <leafValues>
            3.2959580421447754e-01 -1.0890658199787140e-01</leafValues></_>
        <_>
          <internalNodes>
            0 -1 56 -8.0452054738998413e-02</internalNodes>
          <leafValues>
            -7.9622590541839600e-01 4.1712895035743713e-02</leafValues></_>
        <_>
          <internalNodes>
            0 -1 383 1.2244109995663166e-02</internalNodes>
          <leafValues>
            -6.8060956895351410e-02 4.4363540410995483e-01</leafValues></_>
        <_>
          <internalNodes>
            0 -1 92 -5.4762666113674641e-03</internalNodes>
          <leafValues>
            2.0715692639350891e-01 -1.5143404901027679e-01</leafValues></_>
        <_>
          <internalNodes>
            0 -1 289 -2.0584305748343468e-02</internalNodes>
          <leafValues>
            -5.9722554683685303e-01 4.4173590838909149e-02</leafValues></_>
        <_>
          <internalNodes>
            0 -1 64 -3.7794893141835928e-03</internalNodes>
          <leafValues>
            -6.3616639375686646e-01 3.9780627936124802e-02</leafValues></_>
        <_>
          <internalNodes>
            0 -1 95 -1.2289822916500270e-04</internalNodes>
          <leafValues>
            1.7028962075710297e-01 -1.5576623380184174e-01</leafValues></_>
        <_>
          <internalNodes>
            0 -1 432 6.0028658481314778e-04</internalNodes>
          <leafValues>
            -1.0009855777025223e-01 2.5859785079956055e-01</leafValues></_>
        <_>
          <internalNodes>
            0 -1 69 -1.1899289675056934e-03</internalNodes>
          <leafValues>
            -3.7382301688194275e-01 7.4878469109535217e-02</leafValues></_>
        <_>
          <internalNodes>
            0 -1 381 1.7994675785303116e-02</internalNodes>
          <leafValues>
            -4.0747579187154770e-02 7.5372952222824097e-01</leafValues></_>
        <_>
          <internalNodes>
            0 -1 531 6.3579634297639132e-04</internalNodes>
          <leafValues>
            1.0116347670555115e-01 -2.8777992725372314e-01</leafValues></_>
        <_>
          <internalNodes>
            0 -1 74 8.8005308061838150e-03</internalNodes>
          <leafValues>
            -1.4754694700241089e-01 1.7898498475551605e-01</leafValues></_>
        <_>
          <internalNodes>
            0 -1 429 -1.0794386267662048e-02</internalNodes>
          <leafValues>
            3.8983148336410522e-01 -7.7396482229232788e-02</leafValues></_>
        <_>
          <internalNodes>
            0 -1 535 -1.2114764831494540e-04</internalNodes>
          <leafValues>
            1.9425542652606964e-01 -1.5289109945297241e-01</leafValues></_>
        <_>
          <internalNodes>
            0 -1 313 6.6396836191415787e-03</internalNodes>
          <leafValues>
            7.8528076410293579e-02 -3.5001358389854431e-01</leafValues></_>
        <_>
          <internalNodes>
            0 -1 270 -2.6751874247565866e-04</internalNodes>
          <leafValues>
            2.0910869538784027e-01 -1.4993666112422943e-01</leafValues></_>
        <_>
          <internalNodes>
            0 -1 338 2.7421189006417990e-03</internalNodes>
          <leafValues>
            -7.5797311961650848e-02 4.3175309896469116e-01</leafValues></_>
        <_>
          <internalNodes>
            0 -1 444 -1.1289140675216913e-03</internalNodes>
          <leafValues>
            -3.1402286887168884e-01 9.0545907616615295e-02</leafValues></_>
        <_>
          <internalNodes>
            0 -1 188 4.5647062361240387e-02</internalNodes>
          <leafValues>
            -3.7433292716741562e-02 8.0194425582885742e-01</leafValues></_>
        <_>
          <internalNodes>
            0 -1 410 -2.5540064089000225e-03</internalNodes>
          <leafValues>
            2.4641607701778412e-01 -1.2041391432285309e-01</leafValues></_>
        <_>
          <internalNodes>
            0 -1 413 2.6369353756308556e-02</internalNodes>
          <leafValues>
            9.9576912820339203e-02 -3.3967733383178711e-01</leafValues></_>
        <_>
          <internalNodes>
            0 -1 252 2.1994631737470627e-02</internalNodes>
          <leafValues>
            5.4575301706790924e-02 -5.0583022832870483e-01</leafValues></_>
        <_>
          <internalNodes>
            0 -1 346 1.5561273321509361e-02</internalNodes>
          <leafValues>
            -8.2872189581394196e-02 3.8030466437339783e-01</leafValues></_>
        <_>
          <internalNodes>
            0 -1 169 -1.5309365466237068e-02</internalNodes>
          <leafValues>
            2.2242026031017303e-01 -1.3590474426746368e-01</leafValues></_>
        <_>
          <internalNodes>
            0 -1 151 -2.0798526238650084e-03</internalNodes>
          <leafValues>
            2.0875632762908936e-01 -1.5525326132774353e-01</leafValues></_>
        <_>
          <internalNodes>
            0 -1 261 2.4768838193267584e-04</internalNodes>
          <leafValues>
            -1.5088254213333130e-01 2.2663864493370056e-01</leafValues></_>
        <_>
          <internalNodes>
            0 -1 456 9.3220267444849014e-04</internalNodes>
          <leafValues>
            -9.4112925231456757e-02 3.6074754595756531e-01</leafValues></_>
        <_>
          <internalNodes>
            0 -1 542 2.0482936815824360e-04</internalNodes>
          <leafValues>
            1.1163197457790375e-01 -2.7701556682586670e-01</leafValues></_></weakClassifiers></_>
    <!-- stage 16 -->
    <_>
      <maxWeakCount>35</maxWeakCount>
      <stageThreshold>-1.0584658384323120e+00</stageThreshold>
      <weakClassifiers>
        <_>
          <internalNodes>
            0 -1 528 7.3351967148482800e-03</internalNodes>
          <leafValues>
            -4.2658424377441406e-01 2.2222222387790680e-01</leafValues></_>
        <_>
          <internalNodes>
            0 -1 242 2.5832433253526688e-02</internalNodes>
          <leafValues>
            -7.3505260050296783e-02 6.3029718399047852e-01</leafValues></_>
        <_>
          <internalNodes>
            0 -1 1 3.6161778552923352e-05</internalNodes>
          <leafValues>
            -1.8435463309288025e-01 1.5729191899299622e-01</leafValues></_>
        <_>
          <internalNodes>
            0 -1 422 -2.8967519756406546e-04</internalNodes>
          <leafValues>
            -3.3187735080718994e-01 9.9840514361858368e-02</leafValues></_>
        <_>
          <internalNodes>
            0 -1 232 1.2565078213810921e-03</internalNodes>
          <leafValues>
            -1.1848956346511841e-01 2.3487342894077301e-01</leafValues></_>
        <_>
          <internalNodes>
            0 -1 251 -7.6739874202758074e-04</internalNodes>
          <leafValues>
            2.0003129541873932e-01 -1.4598394930362701e-01</leafValues></_>
        <_>
          <internalNodes>
            0 -1 273 -1.2174102663993835e-01</internalNodes>
          <leafValues>
            4.0117833018302917e-01 -9.2521719634532928e-02</leafValues></_>
        <_>
          <internalNodes>
            0 -1 45 5.9364351909607649e-04</internalNodes>
          <leafValues>
            -2.0259657502174377e-01 1.6480560600757599e-01</leafValues></_>
        <_>
          <internalNodes>
            0 -1 2 2.4915095418691635e-03</internalNodes>
          <leafValues>
            6.6487021744251251e-02 -4.9483665823936462e-01</leafValues></_>
        <_>
          <internalNodes>
            0 -1 195 2.9781717807054520e-02</internalNodes>
          <leafValues>
            -4.1446886956691742e-02 6.0292202234268188e-01</leafValues></_>
        <_>
          <internalNodes>
            0 -1 14 3.5261886660009623e-03</internalNodes>
          <leafValues>
            -1.1348444223403931e-01 2.7263984084129333e-01</leafValues></_>
        <_>
          <internalNodes>
            0 -1 200 -5.2420057356357574e-02</internalNodes>
          <leafValues>
            -5.3300917148590088e-01 5.3239431232213974e-02</leafValues></_>
        <_>
          <internalNodes>
            0 -1 299 -2.3760344833135605e-02</internalNodes>
          <leafValues>
            2.2996154427528381e-01 -1.3197018206119537e-01</leafValues></_>
        <_>
          <internalNodes>
            0 -1 16 8.4092660108581185e-04</internalNodes>
          <leafValues>
            8.7629497051239014e-02 -3.2385402917861938e-01</leafValues></_>
        <_>
          <internalNodes>
            0 -1 185 -9.8737468942999840e-04</internalNodes>
          <leafValues>
            2.7994802594184875e-01 -9.7983561456203461e-02</leafValues></_>
        <_>
          <internalNodes>
            0 -1 476 -1.7854166217148304e-03</internalNodes>
          <leafValues>
            1.6164083778858185e-01 -1.7208141088485718e-01</leafValues></_>
        <_>
          <internalNodes>
            0 -1 293 -1.2074949918314815e-03</internalNodes>
          <leafValues>
            3.6032670736312866e-01 -6.7047722637653351e-02</leafValues></_>
        <_>
          <internalNodes>
            0 -1 279 -3.6842040717601776e-03</internalNodes>
          <leafValues>
            -5.1556158065795898e-01 4.7690533101558685e-02</leafValues></_>
        <_>
          <internalNodes>
            0 -1 343 4.4602504203794524e-05</internalNodes>
          <leafValues>
            -1.6856884956359863e-01 1.6046079993247986e-01</leafValues></_>
        <_>
          <internalNodes>
            0 -1 73 -2.5673184543848038e-02</internalNodes>
          <leafValues>
            2.6211196184158325e-01 -1.0463445633649826e-01</leafValues></_>
        <_>
          <internalNodes>
            0 -1 106 -8.7339729070663452e-02</internalNodes>
          <leafValues>
            -9.1848921775817871e-01 3.2318983227014542e-02</leafValues></_>
        <_>
          <internalNodes>
            0 -1 367 1.3235986232757568e-02</internalNodes>
          <leafValues>
            -8.6389385163784027e-02 3.4263312816619873e-01</leafValues></_>
        <_>
          <internalNodes>
            0 -1 467 7.9987533390522003e-03</internalNodes>
          <leafValues>
            7.6599992811679840e-02 -3.3836436271667480e-01</leafValues></_>
        <_>
          <internalNodes>
            0 -1 292 -1.1796226724982262e-02</internalNodes>
          <leafValues>
            -2.5173705816268921e-01 1.0950175672769547e-01</leafValues></_>
        <_>
          <internalNodes>
            0 -1 428 5.6272998452186584e-02</internalNodes>
          <leafValues>
            -6.9765657186508179e-02 4.3380352854728699e-01</leafValues></_>
        <_>
          <internalNodes>
            0 -1 336 -2.8451958671212196e-02</internalNodes>
          <leafValues>
            -9.1697245836257935e-01 3.1538464128971100e-02</leafValues></_>
        <_>
          <internalNodes>
            0 -1 439 1.7100475728511810e-02</internalNodes>
          <leafValues>
            -5.2738331258296967e-02 6.3426601886749268e-01</leafValues></_>
        <_>
          <internalNodes>
            0 -1 352 6.3182294368743896e-02</internalNodes>
          <leafValues>
            -3.2232917845249176e-02 6.6766256093978882e-01</leafValues></_>
        <_>
          <internalNodes>
            0 -1 365 5.9326201677322388e-02</internalNodes>
          <leafValues>
            3.4005891531705856e-02 -8.5606032609939575e-01</leafValues></_>
        <_>
          <internalNodes>
            0 -1 91 -1.3918071053922176e-03</internalNodes>
          <leafValues>
            -3.3865740895271301e-01 6.4053840935230255e-02</leafValues></_>
        <_>
          <internalNodes>
            0 -1 101 -8.7630236521363258e-05</internalNodes>
          <leafValues>
            -2.4264030158519745e-01 1.1558806896209717e-01</leafValues></_>
        <_>
          <internalNodes>
            0 -1 402 -1.2512949761003256e-03</internalNodes>
          <leafValues>
            2.3049585521221161e-01 -1.1779335886240005e-01</leafValues></_>
        <_>
          <internalNodes>
            0 -1 140 1.4380104403244331e-05</internalNodes>
          <leafValues>
            -1.3991039991378784e-01 2.0287443697452545e-01</leafValues></_>
        <_>
          <internalNodes>
            0 -1 170 -3.3207228407263756e-03</internalNodes>
          <leafValues>
            3.5558792948722839e-01 -7.7415809035301208e-02</leafValues></_>
        <_>
          <internalNodes>
            0 -1 277 1.0149077570531517e-04</internalNodes>
          <leafValues>
            -1.9385416805744171e-01 1.5034790337085724e-01</leafValues></_></weakClassifiers></_>
    <!-- stage 17 -->
    <_>
      <maxWeakCount>40</maxWeakCount>
      <stageThreshold>-1.0851109027862549e+00</stageThreshold>
      <weakClassifiers>
        <_>
          <internalNodes>
            0 -1 160 -3.7570276763290167e-03</internalNodes>
          <leafValues>
            6.8965518474578857e-01 -3.8214784860610962e-01</leafValues></_>
        <_>
          <internalNodes>
            0 -1 221 1.2000629678368568e-02</internalNodes>
          <leafValues>
            8.8980294764041901e-02 -3.1023263931274414e-01</leafValues></_>
        <_>
          <internalNodes>
            0 -1 278 2.0063894335180521e-03</internalNodes>
          <leafValues>
            -5.4306011646986008e-02 5.7721722126007080e-01</leafValues></_>
        <_>
          <internalNodes>
            0 -1 481 -6.8471388658508658e-04</internalNodes>
          <leafValues>
            -3.4745040535926819e-01 9.3227520585060120e-02</leafValues></_>
        <_>
          <internalNodes>
            0 -1 86 4.2186796665191650e-01</internalNodes>
          <leafValues>
            -4.7221112996339798e-02 6.0946917533874512e-01</leafValues></_>
        <_>
          <internalNodes>
            0 -1 496 8.4331501275300980e-03</internalNodes>
          <leafValues>
            -9.0284213423728943e-02 2.9057753086090088e-01</leafValues></_>
        <_>
          <internalNodes>
            0 -1 555 -1.3021283783018589e-02</internalNodes>
          <leafValues>
            2.5631618499755859e-01 -1.0813554376363754e-01</leafValues></_>
        <_>
          <internalNodes>
            0 -1 318 1.4203447103500366e-01</internalNodes>
          <leafValues>
            -2.9241222888231277e-02 5.6629627943038940e-01</leafValues></_>
        <_>
          <internalNodes>
            0 -1 431 -7.5296517461538315e-03</internalNodes>
          <leafValues>
            5.4541718959808350e-01 -4.4003445655107498e-02</leafValues></_>
        <_>
          <internalNodes>
            0 -1 379 -1.9706329703330994e-01</internalNodes>
          <leafValues>
            -8.6690443754196167e-01 2.6894973590970039e-02</leafValues></_>
        <_>
          <internalNodes>
            0 -1 230 -1.7198154237121344e-03</internalNodes>
          <leafValues>
            2.1694527566432953e-01 -1.2911963462829590e-01</leafValues></_>
        <_>
          <internalNodes>
            0 -1 559 5.3241371642798185e-04</internalNodes>
          <leafValues>
            6.0371294617652893e-02 -3.8539659976959229e-01</leafValues></_>
        <_>
          <internalNodes>
            0 -1 489 1.4089464093558490e-04</internalNodes>
          <leafValues>
            9.7516804933547974e-02 -2.7920544147491455e-01</leafValues></_>
        <_>
          <internalNodes>
            0 -1 257 -5.7100918143987656e-02</internalNodes>
          <leafValues>
            4.7352290153503418e-01 -5.3794398903846741e-02</leafValues></_>
        <_>
          <internalNodes>
            0 -1 297 -1.9060146063566208e-02</internalNodes>
          <leafValues>
            -5.2398455142974854e-01 5.1509410142898560e-02</leafValues></_>
        <_>
          <internalNodes>
            0 -1 298 8.0366404727101326e-03</internalNodes>
          <leafValues>
            1.2747532129287720e-01 -2.5272044539451599e-01</leafValues></_>
        <_>
          <internalNodes>
            0 -1 484 4.7582793049514294e-03</internalNodes>
          <leafValues>
            -6.3691005110740662e-02 4.2380598187446594e-01</leafValues></_>
        <_>
          <internalNodes>
            0 -1 243 -2.1850502118468285e-02</internalNodes>
          <leafValues>
            -9.2884194850921631e-01 3.2659057527780533e-02</leafValues></_>
        <_>
          <internalNodes>
            0 -1 312 -1.6046635806560516e-01</internalNodes>
          <leafValues>
            -9.3893611431121826e-01 1.3279789127409458e-02</leafValues></_>
        <_>
          <internalNodes>
            0 -1 99 -6.4434662461280823e-02</internalNodes>
          <leafValues>
            -7.3810899257659912e-01 2.6431385427713394e-02</leafValues></_>
        <_>
          <internalNodes>
            0 -1 378 4.2583653703331947e-03</internalNodes>
          <leafValues>
            -9.2842206358909607e-02 3.3641704916954041e-01</leafValues></_>
        <_>
          <internalNodes>
            0 -1 487 1.0064274072647095e-02</internalNodes>
          <leafValues>
            -6.1142086982727051e-02 4.1714525222778320e-01</leafValues></_>
        <_>
          <internalNodes>
            0 -1 393 -2.1746039390563965e-02</internalNodes>
          <leafValues>
            2.4280627071857452e-01 -1.0549088567495346e-01</leafValues></_>
        <_>
          <internalNodes>
            0 -1 527 -3.9081998693291098e-05</internalNodes>
          <leafValues>
